{"learner":{"attributes":{"scikit_learn":"{\"_estimator_type\": \"classifier\"}"},"feature_names":["rotationRate.y","gravity.y","attitude.pitch"],"feature_types":["float","float","float"],"gradient_booster":{"model":{"gbtree_model_param":{"num_parallel_tree":"1","num_trees":"500"},"iteration_indptr":[0,5,10,15,20,25,30,35,40,45,50,55,60,65,70,75,80,85,90,95,100,105,110,115,120,125,130,135,140,145,150,155,160,165,170,175,180,185,190,195,200,205,210,215,220,225,230,235,240,245,250,255,260,265,270,275,280,285,290,295,300,305,310,315,320,325,330,335,340,345,350,355,360,365,370,375,380,385,390,395,400,405,410,415,420,425,430,435,440,445,450,455,460,465,470,475,480,485,490,495,500],"tree_info":[0,1,2,3,4,0,1,2,3,4,0,1,2,3,4,0,1,2,3,4,0,1,2,3,4,0,1,2,3,4,0,1,2,3,4,0,1,2,3,4,0,1,2,3,4,0,1,2,3,4,0,1,2,3,4,0,1,2,3,4,0,1,2,3,4,0,1,2,3,4,0,1,2,3,4,0,1,2,3,4,0,1,2,3,4,0,1,2,3,4,0,1,2,3,4,0,1,2,3,4,0,1,2,3,4,0,1,2,3,4,0,1,2,3,4,0,1,2,3,4,0,1,2,3,4,0,1,2,3,4,0,1,2,3,4,0,1,2,3,4,0,1,2,3,4,0,1,2,3,4,0,1,2,3,4,0,1,2,3,4,0,1,2,3,4,0,1,2,3,4,0,1,2,3,4,0,1,2,3,4,0,1,2,3,4,0,1,2,3,4,0,1,2,3,4,0,1,2,3,4,0,1,2,3,4,0,1,2,3,4,0,1,2,3,4,0,1,2,3,4,0,1,2,3,4,0,1,2,3,4,0,1,2,3,4,0,1,2,3,4,0,1,2,3,4,0,1,2,3,4,0,1,2,3,4,0,1,2,3,4,0,1,2,3,4,0,1,2,3,4,0,1,2,3,4,0,1,2,3,4,0,1,2,3,4,0,1,2,3,4,0,1,2,3,4,0,1,2,3,4,0,1,2,3,4,0,1,2,3,4,0,1,2,3,4,0,1,2,3,4,0,1,2,3,4,0,1,2,3,4,0,1,2,3,4,0,1,2,3,4,0,1,2,3,4,0,1,2,3,4,0,1,2,3,4,0,1,2,3,4,0,1,2,3,4,0,1,2,3,4,0,1,2,3,4,0,1,2,3,4,0,1,2,3,4,0,1,2,3,4,0,1,2,3,4,0,1,2,3,4,0,1,2,3,4,0,1,2,3,4,0,1,2,3,4,0,1,2,3,4,0,1,2,3,4,0,1,2,3,4,0,1,2,3,4,0,1,2,3,4,0,1,2,3,4,0,1,2,3,4,0,1,2,3,4,0,1,2,3,4,0,1,2,3,4,0,1,2,3,4,0,1,2,3,4,0,1,2,3,4,0,1,2,3,4,0,1,2,3,4,0,1,2,3,4,0,1,2,3,4],"trees":[{"base_weights":[-2.3212963E-1,5.436646E-1,-3.976615E-1,1.2082703E-1,6.583898E-1,-5.402646E-1,2.7237397E-2,-2.1778545E-1,1.9823638E-1,3.3581367E-1,8.170924E-1,-2.2296557E-1,-5.6875604E-1,1.0627804E-1,-2.4228884E-1,-5.9586537E-1,-1.4681685E-1,1.281699E-1,3.5565513E-1,4.5108506E-1,-8.343302E-2,8.9108956E-1,4.9444112E-1,-8.1103705E-2,-4.1135374E-1,-5.860753E-1,-3.933053E-1,2.2550945E-1,-1.5065005E-1,-3.6062747E-1,-1.413955E-1,-6.07247E-1,-4.9835703E-1,-5.3828496E-1,-9.269654E-2,4.5722964E-1,6.3292205E-2,1.3670456E-1,4.6191493E-1,3.5408747E-1,5.896787E-1,-1.8785383E-1,-9.4796997E-4,1.4165431E-1,9.343939E-1,6.178904E-1,3.8868213E-1,-3.96423E-1,-1.0772004E-2,-2.9295108E-1,-4.6058032E-1,-5.3892785E-1,-6.196222E-1,-3.0388495E-1,-5.0592697E-1,9.4193316E-1,1.9947906E-1,-3.3242312E-1,-6.5803915E-2,6.8655133E-1,-3.8142413E-1,-1.051758E-1,-2.567604E-1,-1.2616822E-1,-1.8433328E-1,-1.6774717E-1,-1.0280374E-1,-8.171206E-2,-1.6509537E-1,3.1040153E-2,-4.3418895E-2,1.8141916E-1,-1.7808929E-1,-1.1691613E-1,4.2830806E-2,2.0933274E-2,6.5853655E-2,1.1287769E-1,1.6793025E-1,4.1916754E-2,1.23889334E-1,1.0737087E-2,1.8602492E-1,-2.957774E-2,-8.627208E-2,3.409777E-2,-2.3555577E-2,-3.1477366E-2,1.0839423E-1,3.0157873E-1,2.154194E-1,2.0261438E-1,1.2388705E-1,1.2975058E-1,1.00274675E-1,3.5436742E-2,-1.3420294E-1,4.8306305E-2,-3.8486354E-2,-7.625973E-2,-1.2691489E-1,-1.2043049E-1,-1.4670058E-1,-1.6811737E-1,-1.3056907E-1,-1.864076E-1,-1.2862764E-1,-1.5266632E-1,-6.970914E-2,-1.5520374E-1,-1.2785208E-1,4.5588855E-2,3.0628607E-1,-3.623952E-2,6.962788E-2,-6.150503E-2,-1.089712E-1,2.2995991E-3,-5.8011048E-2,3.705513E-1,3.6842104E-2,-7.887901E-2,-1.3788252E-1,-2.7677193E-2,-7.285753E-2,-9.229856E-2,-6.183676E-2],"categories":[],"categories_nodes":[],"categories_segments":[],"categories_sizes":[],"default_left":[0,0,0,0,0,0,0,0,0,0,0,0,0,0,0,0,0,0,0,0,0,0,0,0,0,0,0,0,0,0,0,0,0,0,0,0,0,0,0,0,0,0,0,0,0,0,0,0,0,0,0,0,0,0,0,0,0,0,0,0,0,0,0,0,0,0,0,0,0,0,0,0,0,0,0,0,0,0,0,0,0,0,0,0,0,0,0,0,0,0,0,0,0,0,0,0,0,0,0,0,0,0,0,0,0,0,0,0,0,0,0,0,0,0,0,0,0,0,0,0,0,0,0,0,0,0,0],"id":0,"left_children":[1,3,5,7,9,11,13,15,17,19,21,23,25,27,29,31,33,35,37,39,41,43,45,47,49,51,53,55,57,59,61,63,65,67,69,71,73,75,77,79,81,83,85,87,89,91,93,95,97,99,101,103,105,107,109,111,113,115,117,119,121,123,125,-1,-1,-1,-1,-1,-1,-1,-1,-1,-1,-1,-1,-1,-1,-1,-1,-1,-1,-1,-1,-1,-1,-1,-1,-1,-1,-1,-1,-1,-1,-1,-1,-1,-1,-1,-1,-1,-1,-1,-1,-1,-1,-1,-1,-1,-1,-1,-1,-1,-1,-1,-1,-1,-1,-1,-1,-1,-1,-1,-1,-1,-1,-1,-1],"loss_changes":[3.447244E4,2.289834E3,1.3404902E4,2.6414148E2,1.9005615E3,1.4973203E3,1.1843461E3,5.0228607E1,9.041312E1,5.918268E2,5.9371484E2,3.6475464E2,4.616211E2,1.316901E3,1.5046454E2,2.5909424E-2,3.3428818E1,1.21163864E2,5.8693787E1,1.2891125E2,2.275268E1,6.567949E2,6.040222E1,1.7270001E2,3.403839E1,2.1846094E2,1.3739746E2,5.473773E2,2.1013275E2,1.26595215E2,2.8413574E1,9.162903E-2,1.5405941E-1,4.6355057E-1,1.4197405E1,1.4524945E2,1.7082619E2,4.565755E0,1.403717E1,7.128766E1,6.654883E1,1.0348576E1,1.3138254E1,5.999254E1,2.9265234E2,2.495166E1,5.8289795E0,3.7263123E1,1.2858765E2,8.586746E0,6.762268E0,1.27771484E2,2.6523438E1,1.115484E2,5.283325E0,6.408887E1,2.959884E2,1.6948517E1,8.7080795E1,3.4896057E1,5.2581238E1,9.194218E0,4.1267395E0,0E0,0E0,0E0,0E0,0E0,0E0,0E0,0E0,0E0,0E0,0E0,0E0,0E0,0E0,0E0,0E0,0E0,0E0,0E0,0E0,0E0,0E0,0E0,0E0,0E0,0E0,0E0,0E0,0E0,0E0,0E0,0E0,0E0,0E0,0E0,0E0,0E0,0E0,0E0,0E0,0E0,0E0,0E0,0E0,0E0,0E0,0E0,0E0,0E0,0E0,0E0,0E0,0E0,0E0,0E0,0E0,0E0,0E0,0E0,0E0,0E0,0E0,0E0,0E0],"parents":[2147483647,0,0,1,1,2,2,3,3,4,4,5,5,6,6,7,7,8,8,9,9,10,10,11,11,12,12,13,13,14,14,15,15,16,16,17,17,18,18,19,19,20,20,21,21,22,22,23,23,24,24,25,25,26,26,27,27,28,28,29,29,30,30,31,31,32,32,33,33,34,34,35,35,36,36,37,37,38,38,39,39,40,40,41,41,42,42,43,43,44,44,45,45,46,46,47,47,48,48,49,49,50,50,51,51,52,52,53,53,54,54,55,55,56,56,57,57,58,58,59,59,60,60,61,61,62,62],"right_children":[2,4,6,8,10,12,14,16,18,20,22,24,26,28,30,32,34,36,38,40,42,44,46,48,50,52,54,56,58,60,62,64,66,68,70,72,74,76,78,80,82,84,86,88,90,92,94,96,98,100,102,104,106,108,110,112,114,116,118,120,122,124,126,-1,-1,-1,-1,-1,-1,-1,-1,-1,-1,-1,-1,-1,-1,-1,-1,-1,-1,-1,-1,-1,-1,-1,-1,-1,-1,-1,-1,-1,-1,-1,-1,-1,-1,-1,-1,-1,-1,-1,-1,-1,-1,-1,-1,-1,-1,-1,-1,-1,-1,-1,-1,-1,-1,-1,-1,-1,-1,-1,-1,-1,-1,-1,-1],"split_conditions":[-2.18484E-1,8.41702E-1,1.33725E-1,-2.456683E0,-1.360411E0,-8.3113E-2,1.764007E0,3.61933E-1,7.74418E-1,-3.72363E-1,-4.31448E-1,9.78466E-1,5.2338E-2,9.78466E-1,9.27622E-1,-2.667554E0,-5.145107E0,1.23104E-1,-1.333085E0,-1.414721E0,-1.444294E0,-4.150757E0,-3.20061E-1,6.602E-1,-1.6058E-1,-7.55163E-1,9.77949E-1,9.1745E-2,2.85315E-1,-1.91251E-1,3.498364E0,-3.54059E-1,2.05066E-1,4.05267E-1,6.41069E-1,1.387118E0,4.31476E-1,8.16189E-1,-6.44081E-1,-1.995736E0,-4.150757E0,-2.74776E-1,-2.96838E-1,-5.145107E0,-1.129751E0,9.66672E-1,9.51351E-1,-1.14241E-1,-1.48622E-1,9.96485E-1,-1.28191E-1,-1.204434E0,1.82942E-1,6.30108E-1,-1.383311E0,1.8172E-1,7.04073E-1,9.84007E-1,9.93459E-1,2.425458E0,2.425458E0,9.95932E-1,9.70103E-1,-1.2616822E-1,-1.8433328E-1,-1.6774717E-1,-1.0280374E-1,-8.171206E-2,-1.6509537E-1,3.1040153E-2,-4.3418895E-2,1.8141916E-1,-1.7808929E-1,-1.1691613E-1,4.2830806E-2,2.0933274E-2,6.5853655E-2,1.1287769E-1,1.6793025E-1,4.1916754E-2,1.23889334E-1,1.0737087E-2,1.8602492E-1,-2.957774E-2,-8.627208E-2,3.409777E-2,-2.3555577E-2,-3.1477366E-2,1.0839423E-1,3.0157873E-1,2.154194E-1,2.0261438E-1,1.2388705E-1,1.2975058E-1,1.00274675E-1,3.5436742E-2,-1.3420294E-1,4.8306305E-2,-3.8486354E-2,-7.625973E-2,-1.2691489E-1,-1.2043049E-1,-1.4670058E-1,-1.6811737E-1,-1.3056907E-1,-1.864076E-1,-1.2862764E-1,-1.5266632E-1,-6.970914E-2,-1.5520374E-1,-1.2785208E-1,4.5588855E-2,3.0628607E-1,-3.623952E-2,6.962788E-2,-6.150503E-2,-1.089712E-1,2.2995991E-3,-5.8011048E-2,3.705513E-1,3.6842104E-2,-7.887901E-2,-1.3788252E-1,-2.7677193E-2,-7.285753E-2,-9.229856E-2,-6.183676E-2],"split_indices":[0,1,0,0,2,0,0,1,1,0,0,1,0,1,1,0,0,1,0,2,2,0,0,1,0,2,1,1,0,1,0,2,1,1,1,2,1,1,0,0,0,0,0,0,2,1,1,1,0,1,0,2,2,1,2,0,1,1,1,0,0,1,1,0,0,0,0,0,0,0,0,0,0,0,0,0,0,0,0,0,0,0,0,0,0,0,0,0,0,0,0,0,0,0,0,0,0,0,0,0,0,0,0,0,0,0,0,0,0,0,0,0,0,0,0,0,0,0,0,0,0,0,0,0,0,0,0],"split_type":[0,0,0,0,0,0,0,0,0,0,0,0,0,0,0,0,0,0,0,0,0,0,0,0,0,0,0,0,0,0,0,0,0,0,0,0,0,0,0,0,0,0,0,0,0,0,0,0,0,0,0,0,0,0,0,0,0,0,0,0,0,0,0,0,0,0,0,0,0,0,0,0,0,0,0,0,0,0,0,0,0,0,0,0,0,0,0,0,0,0,0,0,0,0,0,0,0,0,0,0,0,0,0,0,0,0,0,0,0,0,0,0,0,0,0,0,0,0,0,0,0,0,0,0,0,0,0],"sum_hessian":[2.6843522E5,4.7203844E4,2.2123138E5,1.0074561E4,3.712928E4,1.6563969E5,5.5591684E4,1.8742401E3,8.20032E3,1.224448E4,2.4884803E4,1.3648641E4,1.5199105E5,4.2986242E4,1.260544E4,2.9504E2,1.5792001E3,5.6758403E3,2.5244802E3,9.603841E3,2.6406401E3,2.024096E4,4.6438403E3,7.7865605E3,5.8620806E3,1.3833345E5,1.3657601E4,2.9360963E4,1.3625281E4,5.8000005E3,6.8054404E3,2.5952002E2,3.5520004E1,1.9072002E2,1.3884801E3,9.337601E2,4.7420806E3,8.2560004E2,1.6988801E3,5.6518403E3,3.9520002E3,1.1648E3,1.4758401E3,1.10592E3,1.9135041E4,2.1404802E3,2.50336E3,1.4192001E3,6.3673604E3,1.7235201E3,4.13856E3,5.7516164E4,8.081729E4,7.6150405E3,6.0425605E3,1.02816E3,2.8332803E4,4.3350405E3,9.29024E3,1.1232001E2,5.68768E3,5.1808003E3,1.6246401E3,1.1840001E1,2.4768002E2,2.3680002E1,1.1840001E1,9.280001E0,1.8144002E2,2.9088004E2,1.0976001E3,8.192001E2,1.14560005E2,7.072001E2,4.0348804E3,4.5760004E2,3.6800003E2,9.0848004E2,7.904001E2,1.21856E3,4.4332803E3,2.0576001E2,3.7462402E3,6.1568005E2,5.4912006E2,5.9552E2,8.8032007E2,5.2128E2,5.8464E2,1.4410561E4,4.7244805E3,1.6697601E3,4.7072003E2,1.38304E3,1.1203201E3,1.2768001E2,1.2915201E3,2.5862402E3,3.7811204E3,1.3302401E3,3.9328003E2,1.3481602E3,2.7904001E3,4.7649285E4,9.866881E3,8.008641E4,7.3088007E2,1.9680001E3,5.6470405E3,5.2809604E3,7.6160004E2,9.376001E1,9.344001E2,2.6182402E3,2.5714562E4,8.457601E2,3.4892803E3,5.89568E3,3.3945603E3,5.6320004E1,5.6000004E1,2.2627202E3,3.4249602E3,4.7379204E3,4.4288004E2,8.0768005E2,8.169601E2],"tree_param":{"num_deleted":"0","num_feature":"3","num_nodes":"127","size_leaf_vector":"1"}},{"base_weights":[-2.2566254E-1,-3.3043632E-1,7.003587E-1,5.662451E-1,-4.807691E-1,4.666967E-1,1.3360406E0,1.1888045E0,3.9881736E-1,-5.359762E-1,-1.8165138E-2,3.3436596E-1,6.487413E-1,1.1388334E0,1.8257182E0,1.778072E0,9.524936E-1,3.0339032E-1,7.7042836E-1,-1.7059591E-1,-5.750509E-1,-1.8123022E-1,6.348799E-2,-5.716586E-1,3.4417912E-1,7.395585E-1,4.8751333E-1,-1.7522657E-1,1.1517955E0,1.5955542E0,2.0535204E0,2.0010333E0,1.5555217E0,8.598567E-1,1.397532E0,4.5492753E-1,1.6718717E-1,1.0675673E0,5.199344E-1,-6.1927505E-2,-2.9278708E-1,-5.8940923E-1,-3.819893E-1,-8.597142E-2,-3.1705254E-1,1.2641467E-1,-4.2706553E-2,-1.752559E-1,-1.21212125E-1,1.0710682E0,3.260694E-1,-4.3408358E-1,7.587606E-1,4.5002145E-1,6.7009103E-1,9.848997E-1,1.2619562E0,-1.6867469E-1,1.6146492E0,-1.6738197E-1,2.0748363E0,-1.6507177E-1,6.0589707E-1,-1.6738197E-1,4.7185603E-1,3.2861367E-1,2.0248681E-1,3.8500458E-1,5.069611E-1,1.4087158E-1,-1.7570591E-1,-1.7656766E-1,5.381338E-2,2.7307755E-1,3.650986E-1,2.0391487E-1,1.036624E-1,-2.150554E-3,-3.912533E-2,-6.5604076E-2,-1.18361644E-1,-1.4672184E-1,-1.8047516E-1,-8.725368E-2,-1.390767E-1,-2.2732636E-2,-1.7821781E-1,-1.1161E-1,-8.7702714E-2,-1.7231855E-1,4.2822115E-2,-2.7457945E-2,2.5960846E-2,2.4372229E-1,3.925077E-1,8.088626E-2,1.18115075E-1,-2.764977E-2,-1.3979848E-1,4.523316E-1,2.1906643E-1,1.2542348E-1,1.5141074E-1,1.8147013E-1,2.377423E-1,3.2740113E-1,2.2408964E-1,4.0597102E-1,3.3230484E-1,5.060522E-1,4.517647E-1,6.6480947E-1,5.877614E-1],"categories":[],"categories_nodes":[],"categories_segments":[],"categories_sizes":[],"default_left":[0,0,0,0,0,0,0,0,0,0,0,0,0,0,0,0,0,0,0,0,0,0,0,0,0,0,0,0,0,0,0,0,0,0,0,0,0,0,0,0,0,0,0,0,0,0,0,0,0,0,0,0,0,0,0,0,0,0,0,0,0,0,0,0,0,0,0,0,0,0,0,0,0,0,0,0,0,0,0,0,0,0,0,0,0,0,0,0,0,0,0,0,0,0,0,0,0,0,0,0,0,0,0,0,0,0,0,0,0,0,0,0,0],"id":1,"left_children":[1,3,5,7,9,11,13,15,17,19,21,23,25,27,29,31,33,35,37,39,41,43,45,47,49,51,53,-1,55,57,59,61,63,65,67,69,71,73,75,77,79,81,83,85,87,89,91,-1,-1,93,95,97,99,101,103,105,107,-1,109,-1,111,-1,-1,-1,-1,-1,-1,-1,-1,-1,-1,-1,-1,-1,-1,-1,-1,-1,-1,-1,-1,-1,-1,-1,-1,-1,-1,-1,-1,-1,-1,-1,-1,-1,-1,-1,-1,-1,-1,-1,-1,-1,-1,-1,-1,-1,-1,-1,-1,-1,-1,-1,-1],"loss_changes":[2.6044652E4,3.250772E4,4.052169E3,3.6086836E3,5.274492E3,4.8045312E2,7.0606934E2,1.0201201E3,9.674702E2,2.6341484E3,2.9320554E2,1.02942505E2,1.22602295E2,1.1748291E2,1.0702588E2,1.01052246E2,2.1481543E2,4.4811E2,4.1440625E2,2.3669336E2,4.6183203E2,9.5037445E1,9.8061554E1,2.476883E-2,1.501521E2,1.2134863E2,2.0431519E1,0E0,9.4208984E1,4.4208984E1,5.981787E1,5.0770996E1,3.9524414E1,1.8824072E2,2.7911987E1,1.5690479E2,1.0548041E2,5.881372E1,8.410974E1,3.5391544E1,6.3186707E1,1.8921875E2,8.570032E1,2.2334728E1,4.0057373E0,1.0550275E2,3.4461723E1,0E0,0E0,1.596814E1,4.2496216E1,9.071846E-1,1.11848145E2,4.1834717E0,3.6211243E0,5.1578125E1,4.2492188E1,0E0,5.6413574E0,0E0,1.2728027E1,0E0,0E0,0E0,0E0,0E0,0E0,0E0,0E0,0E0,0E0,0E0,0E0,0E0,0E0,0E0,0E0,0E0,0E0,0E0,0E0,0E0,0E0,0E0,0E0,0E0,0E0,0E0,0E0,0E0,0E0,0E0,0E0,0E0,0E0,0E0,0E0,0E0,0E0,0E0,0E0,0E0,0E0,0E0,0E0,0E0,0E0,0E0,0E0,0E0,0E0,0E0,0E0],"parents":[2147483647,0,0,1,1,2,2,3,3,4,4,5,5,6,6,7,7,8,8,9,9,10,10,11,11,12,12,13,13,14,14,15,15,16,16,17,17,18,18,19,19,20,20,21,21,22,22,23,23,24,24,25,25,26,26,28,28,29,29,30,30,31,31,32,32,33,33,34,34,35,35,36,36,37,37,38,38,39,39,40,40,41,41,42,42,43,43,44,44,45,45,46,46,49,49,50,50,51,51,52,52,53,53,54,54,55,55,56,56,58,58,60,60],"right_children":[2,4,6,8,10,12,14,16,18,20,22,24,26,28,30,32,34,36,38,40,42,44,46,48,50,52,54,-1,56,58,60,62,64,66,68,70,72,74,76,78,80,82,84,86,88,90,92,-1,-1,94,96,98,100,102,104,106,108,-1,110,-1,112,-1,-1,-1,-1,-1,-1,-1,-1,-1,-1,-1,-1,-1,-1,-1,-1,-1,-1,-1,-1,-1,-1,-1,-1,-1,-1,-1,-1,-1,-1,-1,-1,-1,-1,-1,-1,-1,-1,-1,-1,-1,-1,-1,-1,-1,-1,-1,-1,-1,-1,-1,-1],"split_conditions":[8.37596E-1,-5.30543E-1,2.425458E0,-2.456683E0,2.1202E-1,1.494714E0,4.00963E0,-4.150757E0,9.81463E-1,-1.48622E-1,3.54808E-1,-1.91251E-1,9.62264E-1,-1.91251E-1,4.941808E0,-5.145107E0,9.80438E-1,-1.199831E0,-1.138634E0,-2.74776E-1,9.2094E-2,9.75249E-1,9.71484E-1,1.416853E0,4.70588E-1,-1.91251E-1,9.95126E-1,-1.7522657E-1,2.846918E0,-1.91251E-1,-1.91251E-1,-1.91251E-1,-1.91251E-1,8.86876E-1,9.9459E-1,1.82942E-1,-1.91251E-1,9.91093E-1,-7.71284E-1,-3.72363E-1,9.76855E-1,-4.8207E-2,9.68421E-1,1.82942E-1,2.4594E-1,-1.91251E-1,6.69859E-1,-1.752559E-1,-1.21212125E-1,1.05345E-1,1.14825E0,1.576339E0,4.76603E-1,1.986049E0,9.98322E-1,9.65822E-1,9.55016E-1,-1.6867469E-1,9.48879E-1,-1.6738197E-1,9.24662E-1,-1.6507177E-1,6.0589707E-1,-1.6738197E-1,4.7185603E-1,3.2861367E-1,2.0248681E-1,3.8500458E-1,5.069611E-1,1.4087158E-1,-1.7570591E-1,-1.7656766E-1,5.381338E-2,2.7307755E-1,3.650986E-1,2.0391487E-1,1.036624E-1,-2.150554E-3,-3.912533E-2,-6.5604076E-2,-1.18361644E-1,-1.4672184E-1,-1.8047516E-1,-8.725368E-2,-1.390767E-1,-2.2732636E-2,-1.7821781E-1,-1.1161E-1,-8.7702714E-2,-1.7231855E-1,4.2822115E-2,-2.7457945E-2,2.5960846E-2,2.4372229E-1,3.925077E-1,8.088626E-2,1.18115075E-1,-2.764977E-2,-1.3979848E-1,4.523316E-1,2.1906643E-1,1.2542348E-1,1.5141074E-1,1.8147013E-1,2.377423E-1,3.2740113E-1,2.2408964E-1,4.0597102E-1,3.3230484E-1,5.060522E-1,4.517647E-1,6.6480947E-1,5.877614E-1],"split_indices":[0,0,0,0,0,0,0,0,1,0,0,1,1,1,0,0,1,0,0,0,0,1,1,0,1,1,1,0,0,1,1,1,1,1,1,2,1,1,0,0,1,0,1,2,0,1,0,0,0,1,0,0,1,0,1,1,1,0,1,0,1,0,0,0,0,0,0,0,0,0,0,0,0,0,0,0,0,0,0,0,0,0,0,0,0,0,0,0,0,0,0,0,0,0,0,0,0,0,0,0,0,0,0,0,0,0,0,0,0,0,0,0,0],"split_type":[0,0,0,0,0,0,0,0,0,0,0,0,0,0,0,0,0,0,0,0,0,0,0,0,0,0,0,0,0,0,0,0,0,0,0,0,0,0,0,0,0,0,0,0,0,0,0,0,0,0,0,0,0,0,0,0,0,0,0,0,0,0,0,0,0,0,0,0,0,0,0,0,0,0,0,0,0,0,0,0,0,0,0,0,0,0,0,0,0,0,0,0,0,0,0,0,0,0,0,0,0,0,0,0,0,0,0,0,0,0,0,0,0],"sum_hessian":[2.6843522E5,2.4115106E5,2.7284162E4,3.462464E4,2.0652642E5,1.9952002E4,7.3321606E3,7.3369604E3,2.7287682E4,1.8450722E5,2.2019201E4,1.1555201E4,8.396801E3,5.2294404E3,2.1027202E3,2.0982402E3,5.23872E3,2.1713602E4,5.5740806E3,1.7825922E4,1.666813E5,7.3465605E3,1.4672641E4,1.2320001E2,1.1432001E4,5.3689604E3,3.0278403E3,3.872E1,5.19072E3,1.04992E3,1.0528E3,1.04416E3,1.0540801E3,4.3385605E3,9.0016003E2,1.0277121E4,1.143648E4,2.5481602E3,3.0259202E3,9.435841E3,8.390081E3,1.5514112E5,1.1540161E4,4.3190405E3,3.0275203E3,9.213121E3,5.4595205E3,1.1232001E2,1.0880001E1,2.7648E2,1.11555205E4,8.608001E1,5.2828804E3,2.5148801E3,5.1296E2,2.06784E3,3.1228801E3,8.960001E0,1.0409601E3,8.320001E0,1.0444801E3,7.3600006E0,1.0368E3,8.320001E0,1.0457601E3,1.9059202E3,2.4326401E3,6.512001E2,2.4896002E2,1.0135041E4,1.4208002E2,1.8080002E2,1.1255681E4,1.2448E3,1.3033601E3,1.5776001E3,1.4483201E3,5.24416E3,4.19168E3,4.8563203E3,3.5337603E3,1.6792002E4,1.3834912E5,5.4534404E3,6.08672E3,4.2352E3,8.3840004E1,9.344001E2,2.09312E3,2.0896002E2,9.00416E3,3.9628804E3,1.4966401E3,1.3440001E2,1.4208002E2,6.0838403E3,5.07168E3,7.6800003E0,7.840001E1,1.9200002E2,5.0908804E3,1.5929601E3,9.2192004E2,3.3856003E2,1.7440001E2,1.4262401E3,6.4160004E2,1.9571201E3,1.1657601E3,6.1696E2,4.2400003E2,4.6208005E2,5.824E2],"tree_param":{"num_deleted":"0","num_feature":"3","num_nodes":"113","size_leaf_vector":"1"}},{"base_weights":[3.857825E-1,2.1655836E0,-5.63365E-1,-3.5601014E-1,2.2985985E0,2.2509648E-2,-6.212554E-1,-5.519286E-1,3.617962E-1,2.4269063E0,-3.191561E-1,-5.9553593E-1,4.0247115E-1,-6.232608E-1,-5.215363E-1,-5.945853E-1,-2.9934728E-1,7.156894E-1,-1.8717661E-1,2.4618177E0,-1.873041E-1,3.911384E-1,-5.283111E-1,-6.1369884E-1,-3.7258872E-1,1.9939739E0,-5.582963E-1,-1.8704821E-1,-5.880665E-1,-4.442018E-1,-1.8502314E-1,-6.0779864E-1,-4.9580187E-1,-1.1027852E-1,-5.1106507E-1,1.0490797E0,-1.8597063E-1,2.1282475E-1,-2.7622938E-1,1.6763172E0,2.4716477E0,6.742933E-1,-2.701368E-1,-2.4843848E-1,-5.8868647E-1,-1.8611431E-1,-5.619373E-1,-9.481882E-2,-4.6884272E-1,2.546668E-1,2.1614597E0,8.688871E-2,-5.986804E-1,-5.65206E-1,-1.8568665E-1,-5.859204E-1,8.401083E-2,-1.856633E-1,-1.7239527E-1,-1.072255E-1,-1.7718664E-1,2.2495674E-2,-1.85029E-1,-1.3340838E-1,-1.776244E-1,2.2247937E-1,3.765966E-1,-2.6759166E-2,1.7272727E-1,-4.7920432E-2,-1.3793656E-1,1.7157713E-1,5.852582E-1,7.442093E-1,5.369271E-1,-1.3316095E-1,3.3263335E-1,-3.5455182E-2,-1.4889124E-1,-1.8598643E-1,-4.348215E-2,-1.4231585E-1,-1.8259144E-1,-1.3591228E-1,-1.7403194E-1,-9.503885E-2,5.7471264E-2,-1.5278985E-1,-1.1345939E-1,1.4691479E-2,1.8045862E-1,6.6890496E-1,4.1212705E-1,1.1020259E-1,-4.4342503E-2,-1.4715591E-1,-1.863822E-1,-1.8470322E-1,-1.4260282E-1,-1.8270765E-1,-1.1570362E-1,2.3302789E-1,-4.7744196E-2],"categories":[],"categories_nodes":[],"categories_segments":[],"categories_sizes":[],"default_left":[0,0,0,0,0,0,0,0,0,0,0,0,0,0,0,0,0,0,0,0,0,0,0,0,0,0,0,0,0,0,0,0,0,0,0,0,0,0,0,0,0,0,0,0,0,0,0,0,0,0,0,0,0,0,0,0,0,0,0,0,0,0,0,0,0,0,0,0,0,0,0,0,0,0,0,0,0,0,0,0,0,0,0,0,0,0,0,0,0,0,0,0,0,0,0,0,0,0,0,0,0,0,0],"id":2,"left_children":[1,3,5,7,9,11,13,15,17,19,21,23,25,27,29,31,33,35,37,39,-1,41,43,45,47,49,51,-1,53,55,-1,57,59,61,63,65,-1,67,69,71,73,75,77,79,81,-1,83,85,87,89,91,93,95,97,-1,99,101,-1,-1,-1,-1,-1,-1,-1,-1,-1,-1,-1,-1,-1,-1,-1,-1,-1,-1,-1,-1,-1,-1,-1,-1,-1,-1,-1,-1,-1,-1,-1,-1,-1,-1,-1,-1,-1,-1,-1,-1,-1,-1,-1,-1,-1,-1],"loss_changes":[4.5346888E5,3.1316031E4,5.937879E3,6.582259E2,2.9788531E4,3.6975435E3,3.1542969E1,3.943042E1,1.9516553E2,9.007281E3,6.15947E2,2.4045654E1,1.4910649E4,9.140625E-1,2.289862E1,3.8024902E0,2.1285622E1,2.7253412E2,1.410353E1,6.4125E2,0E0,1.768275E2,5.396405E1,1.5683594E0,1.2097111E1,1.0687773E3,1.5849377E2,0E0,3.8864136E-1,1.3031635E2,0E0,6.611328E-1,4.7273254E0,2.6593607E1,1.0876465E0,3.0079346E1,0E0,7.9830017E0,6.8317623E0,3.1306445E2,5.050625E2,3.2154443E2,9.686388E0,2.1825783E1,5.7165527E0,0E0,1.011795E0,7.5698166E0,1.0432358E0,2.3055851E1,1.7686719E2,2.3689499E1,1.3680664E1,2.485443E0,0E0,6.1137085E0,6.2280758E1,0E0,0E0,0E0,0E0,0E0,0E0,0E0,0E0,0E0,0E0,0E0,0E0,0E0,0E0,0E0,0E0,0E0,0E0,0E0,0E0,0E0,0E0,0E0,0E0,0E0,0E0,0E0,0E0,0E0,0E0,0E0,0E0,0E0,0E0,0E0,0E0,0E0,0E0,0E0,0E0,0E0,0E0,0E0,0E0,0E0,0E0],"parents":[2147483647,0,0,1,1,2,2,3,3,4,4,5,5,6,6,7,7,8,8,9,9,10,10,11,11,12,12,13,13,14,14,15,15,16,16,17,17,18,18,19,19,21,21,22,22,23,23,24,24,25,25,26,26,28,28,29,29,31,31,32,32,33,33,34,34,35,35,37,37,38,38,39,39,40,40,41,41,42,42,43,43,44,44,46,46,47,47,48,48,49,49,50,50,51,51,52,52,53,53,55,55,56,56],"right_children":[2,4,6,8,10,12,14,16,18,20,22,24,26,28,30,32,34,36,38,40,-1,42,44,46,48,50,52,-1,54,56,-1,58,60,62,64,66,-1,68,70,72,74,76,78,80,82,-1,84,86,88,90,92,94,96,98,-1,100,102,-1,-1,-1,-1,-1,-1,-1,-1,-1,-1,-1,-1,-1,-1,-1,-1,-1,-1,-1,-1,-1,-1,-1,-1,-1,-1,-1,-1,-1,-1,-1,-1,-1,-1,-1,-1,-1,-1,-1,-1,-1,-1,-1,-1,-1,-1],"split_conditions":[6.85353E-1,-1.87311E-1,8.41702E-1,-4.31448E-1,1.8172E-1,-1.10689E-1,-1.034048E0,-6.44081E-1,4.70588E-1,1.82942E-1,4.06948E-1,-2.36467E-1,5.2338E-2,-1.04337E0,7.4284E-2,-8.17407E-1,5.09685E-1,1.82942E-1,5.24428E-1,-8.9067E-2,-1.873041E-1,4.98062E-1,6.31623E-1,-4.31448E-1,7.45988E-1,-4.2245E-2,1.33725E-1,-1.8704821E-1,6.4342E-2,-1.10689E-1,-1.8502314E-1,-1.199831E0,4.05267E-1,1.82942E-1,6.30108E-1,-2.96838E-1,-1.8597063E-1,-2.74776E-1,6.30108E-1,-5.34674E-1,8.5703E-2,-5.5419E-2,6.30108E-1,-1.14241E-1,8.37596E-1,-1.8611431E-1,-9.75727E-1,-1.6058E-1,-1.48622E-1,-6.3131E-2,2.7239E-2,8.5703E-2,4.06948E-1,-1.73061E-1,-1.8568665E-1,-2.36467E-1,8.48289E-1,-1.856633E-1,-1.7239527E-1,-1.072255E-1,-1.7718664E-1,2.2495674E-2,-1.85029E-1,-1.3340838E-1,-1.776244E-1,2.2247937E-1,3.765966E-1,-2.6759166E-2,1.7272727E-1,-4.7920432E-2,-1.3793656E-1,1.7157713E-1,5.852582E-1,7.442093E-1,5.369271E-1,-1.3316095E-1,3.3263335E-1,-3.5455182E-2,-1.4889124E-1,-1.8598643E-1,-4.348215E-2,-1.4231585E-1,-1.8259144E-1,-1.3591228E-1,-1.7403194E-1,-9.503885E-2,5.7471264E-2,-1.5278985E-1,-1.1345939E-1,1.4691479E-2,1.8045862E-1,6.6890496E-1,4.1212705E-1,1.1020259E-1,-4.4342503E-2,-1.4715591E-1,-1.863822E-1,-1.8470322E-1,-1.4260282E-1,-1.8270765E-1,-1.1570362E-1,2.3302789E-1,-4.7744196E-2],"split_indices":[1,0,1,0,0,0,2,0,1,2,0,0,0,2,0,0,1,2,1,0,0,1,0,0,1,0,0,0,0,0,0,0,1,2,1,0,0,0,1,2,0,1,1,1,0,0,2,0,0,0,0,0,0,0,0,0,1,0,0,0,0,0,0,0,0,0,0,0,0,0,0,0,0,0,0,0,0,0,0,0,0,0,0,0,0,0,0,0,0,0,0,0,0,0,0,0,0,0,0,0,0,0,0],"split_type":[0,0,0,0,0,0,0,0,0,0,0,0,0,0,0,0,0,0,0,0,0,0,0,0,0,0,0,0,0,0,0,0,0,0,0,0,0,0,0,0,0,0,0,0,0,0,0,0,0,0,0,0,0,0,0,0,0,0,0,0,0,0,0,0,0,0,0,0,0,0,0,0,0,0,0,0,0,0,0,0,0,0,0,0,0,0,0,0,0,0,0,0,0,0,0,0,0,0,0,0,0,0,0],"sum_hessian":[2.6843522E5,9.33632E4,1.7507202E5,4.6780806E3,8.8685125E4,1.5743361E4,1.5932866E5,3.6752002E3,1.00288007E3,8.4541445E4,4.14368E3,5.9936006E3,9.749761E3,1.561824E5,3.1462402E3,3.1430403E3,5.3216003E2,6.0960004E2,3.9328003E2,8.358529E4,9.561601E2,9.424001E2,3.2012803E3,5.5404805E3,4.5312003E2,3.6697603E3,6.0800005E3,1.5513761E5,1.0448E3,1.7392001E3,1.40704E3,2.7676802E3,3.7536002E2,2.8192E2,2.5024002E2,4.8800003E2,1.21600006E2,7.136001E1,3.2192E2,1.0352001E3,8.2550086E4,6.5984E2,2.8256003E2,5.6896E2,2.63232E3,4.8972803E3,6.432001E2,1.1712001E2,3.3600003E2,3.2256003E2,3.3472002E3,3.5808002E2,5.7219204E3,6.1152E2,4.3328003E2,1.3712001E3,3.6800003E2,2.06112E3,7.0656006E2,1.5456001E2,2.2080002E2,2.0704001E2,7.4880005E1,1.4112001E2,1.0912001E2,1.9776001E2,2.9024002E2,3.9360004E1,3.2000004E1,1.9808002E2,1.2384001E2,2.0672002E2,8.2848004E2,8.146624E4,1.0838401E3,1.8464001E2,4.7520004E2,1.6992001E2,1.1264001E2,1.22880005E2,4.4608002E2,3.9488004E2,2.2374402E3,9.568001E1,5.4752E2,6.5920006E1,5.1200005E1,2.2912001E2,1.06880005E2,2.0320001E2,1.1936001E2,3.0787202E3,2.6848E2,1.6288E2,1.9520001E2,9.926401E2,4.7292803E3,3.8784003E2,2.2368002E2,1.2275201E3,1.4368001E2,9.504001E1,2.7296002E2],"tree_param":{"num_deleted":"0","num_feature":"3","num_nodes":"103","size_leaf_vector":"1"}},{"base_weights":[2.879865E-1,1.0337803E0,-5.0514024E-1,1.4095623E0,-4.2002332E-1,3.640203E-2,-5.970917E-1,-3.3374825E-1,2.0068398E0,8.500405E-2,-5.517603E-1,-5.7153237E-1,3.270892E-1,1.840696E0,-6.2022865E-1,-5.2998435E-1,3.0302662E-1,2.1178975E0,1.0660477E0,-1.4204337E-1,2.8286633E-1,-3.9102516E-1,-5.963396E-1,-5.972163E-1,-2.8750098E-1,1.2729506E0,-4.905182E-1,-4.5923814E-1,2.1152775E0,-5.312192E-1,-6.2466997E-1,-5.829705E-1,-3.0636573E-1,5.8751374E-1,3.1344254E-2,1.3923639E0,2.2267544E0,1.2845103E0,6.208485E-1,-3.3312505E-1,-4.9044073E-2,4.71837E-1,7.9163685E-2,-4.850178E-1,-3.1208238E-1,-5.539869E-1,-6.1910224E-1,-6.134707E-1,-4.8080817E-1,-3.2428354E-1,-1.5395631E-1,4.077653E-1,1.5391067E0,-1.9911742E-2,-5.81854E-1,-5.8823526E-1,1.300813E-1,2.367015E0,-8.2474224E-2,-1.8702382E-1,-4.885944E-1,-1.8749817E-1,-1.8254648E-1,-1.8102732E-1,-1.4884195E-1,-1.059236E-1,-2.7965413E-2,7.9955615E-2,2.824348E-1,-3.6409777E-2,6.695392E-2,3.0583543E-1,4.9616787E-1,6.841445E-1,5.550937E-1,4.5336634E-1,2.9661822E-1,2.9471093E-1,1.3107258E-1,-7.444373E-2,-1.2390341E-1,1.953493E-2,-7.0856E-2,1.7292438E-1,1.0869347E-1,3.853601E-2,-2.4169182E-2,-1.6996165E-1,-1.2992194E-1,-6.523407E-2,-1.0536098E-1,-1.7375612E-1,-1.543052E-1,-1.8232983E-1,-1.8673043E-1,-1.8588726E-1,-1.7273915E-1,-1.3933368E-1,-1.5906334E-1,-9.374003E-2,-1.5240641E-1,9.605123E-3,-7.3365234E-2,3.0669894E-2,2.2656776E-1,5.1112425E-1,2.975542E-1,6.306736E-2,-4.7410086E-2,-1.2096902E-1,-1.827032E-1,-1.854008E-1,-8.171206E-2,5.1301116E-1,7.2269744E-1,1.4410481E-1,-1.724138E-1,-1.0680128E-1,-1.8202333E-1],"categories":[],"categories_nodes":[],"categories_segments":[],"categories_sizes":[],"default_left":[0,0,0,0,0,0,0,0,0,0,0,0,0,0,0,0,0,0,0,0,0,0,0,0,0,0,0,0,0,0,0,0,0,0,0,0,0,0,0,0,0,0,0,0,0,0,0,0,0,0,0,0,0,0,0,0,0,0,0,0,0,0,0,0,0,0,0,0,0,0,0,0,0,0,0,0,0,0,0,0,0,0,0,0,0,0,0,0,0,0,0,0,0,0,0,0,0,0,0,0,0,0,0,0,0,0,0,0,0,0,0,0,0,0,0,0,0,0,0],"id":3,"left_children":[1,3,5,7,9,11,13,15,17,19,21,23,25,27,29,31,33,35,37,39,41,43,45,47,49,51,53,55,57,59,61,63,65,67,69,71,73,75,77,79,81,83,85,87,89,91,93,95,97,99,101,103,105,107,109,111,-1,113,115,-1,117,-1,-1,-1,-1,-1,-1,-1,-1,-1,-1,-1,-1,-1,-1,-1,-1,-1,-1,-1,-1,-1,-1,-1,-1,-1,-1,-1,-1,-1,-1,-1,-1,-1,-1,-1,-1,-1,-1,-1,-1,-1,-1,-1,-1,-1,-1,-1,-1,-1,-1,-1,-1,-1,-1,-1,-1,-1,-1],"loss_changes":[1.5878297E5,7.558117E4,6.477961E3,1.144658E5,1.8905894E3,3.3372659E3,6.2736055E3,3.5056738E3,8.552656E3,2.6418146E2,1.6125684E2,4.439258E1,9.880643E3,6.6141455E2,4.321875E1,2.5391943E2,5.1081677E2,5.7808125E3,8.402119E2,4.864986E1,1.2091489E2,3.617981E1,1.666455E1,1.0303467E1,2.4479828E0,1.363417E3,2.9455945E2,1.3196024E1,5.171797E2,2.029602E1,1.6796875E-1,3.0489258E1,4.0890564E1,3.665464E2,9.90977E1,9.303672E2,1.2836562E3,3.8741797E2,1.8898145E2,5.9826202E0,3.9394897E1,1.845877E1,1.19246025E1,9.211853E0,9.7864685E0,5.871582E0,5.46875E-2,7.8186035E-1,3.1227112E-1,7.0495987E-1,1.8901062E0,1.4800813E2,4.0643652E2,3.5473022E1,2.759436E1,7.587471E-1,0E0,1.9002441E1,2.714927E1,0E0,5.6015015E1,0E0,0E0,0E0,0E0,0E0,0E0,0E0,0E0,0E0,0E0,0E0,0E0,0E0,0E0,0E0,0E0,0E0,0E0,0E0,0E0,0E0,0E0,0E0,0E0,0E0,0E0,0E0,0E0,0E0,0E0,0E0,0E0,0E0,0E0,0E0,0E0,0E0,0E0,0E0,0E0,0E0,0E0,0E0,0E0,0E0,0E0,0E0,0E0,0E0,0E0,0E0,0E0,0E0,0E0,0E0,0E0,0E0,0E0],"parents":[2147483647,0,0,1,1,2,2,3,3,4,4,5,5,6,6,7,7,8,8,9,9,10,10,11,11,12,12,13,13,14,14,15,15,16,16,17,17,18,18,19,19,20,20,21,21,22,22,23,23,24,24,25,25,26,26,27,27,28,28,29,29,30,30,31,31,32,32,33,33,34,34,35,35,36,36,37,37,38,38,39,39,40,40,41,41,42,42,43,43,44,44,45,45,46,46,47,47,48,48,49,49,50,50,51,51,52,52,53,53,54,54,55,55,57,57,58,58,60,60],"right_children":[2,4,6,8,10,12,14,16,18,20,22,24,26,28,30,32,34,36,38,40,42,44,46,48,50,52,54,56,58,60,62,64,66,68,70,72,74,76,78,80,82,84,86,88,90,92,94,96,98,100,102,104,106,108,110,112,-1,114,116,-1,118,-1,-1,-1,-1,-1,-1,-1,-1,-1,-1,-1,-1,-1,-1,-1,-1,-1,-1,-1,-1,-1,-1,-1,-1,-1,-1,-1,-1,-1,-1,-1,-1,-1,-1,-1,-1,-1,-1,-1,-1,-1,-1,-1,-1,-1,-1,-1,-1,-1,-1,-1,-1,-1,-1,-1,-1,-1,-1],"split_conditions":[-1.154009E0,3.06938E-1,-1.024055E0,-2.55164E-1,5.27044E-1,-3.20061E-1,-9.83324E-1,-4.95086E-1,1.33725E-1,9.74598E-1,7.92385E-1,-4.31448E-1,1.96447E-1,-3.72363E-1,-9.6546E-1,-7.28418E-1,-1.355204E0,-1.02906E-1,-1.318846E0,9.42746E-1,4.06948E-1,9.70805E-1,1.274995E0,-6.0358E-1,-3.45596E-1,-1.10689E-1,4.06948E-1,-4.62526E-1,2.85315E-1,-4.62526E-1,8.09553E-1,-9.67061E-1,9.91579E-1,-3.45596E-1,-3.45596E-1,9.76357E-1,6.4342E-2,2.1202E-1,1.8172E-1,4.06948E-1,4.33704E-1,3.54808E-1,4.94042E-1,9.43718E-1,5.96322E-1,9.7941E-1,1.576339E0,-8.17407E-1,9.04314E-1,-1.034048E0,8.79968E-1,-1.87311E-1,7.984E-2,2.65427E-1,5.96322E-1,-5.66538E-1,1.300813E-1,-1.48622E-1,7.92385E-1,-1.8702382E-1,3.06938E-1,-1.8749817E-1,-1.8254648E-1,-1.8102732E-1,-1.4884195E-1,-1.059236E-1,-2.7965413E-2,7.9955615E-2,2.824348E-1,-3.6409777E-2,6.695392E-2,3.0583543E-1,4.9616787E-1,6.841445E-1,5.550937E-1,4.5336634E-1,2.9661822E-1,2.9471093E-1,1.3107258E-1,-7.444373E-2,-1.2390341E-1,1.953493E-2,-7.0856E-2,1.7292438E-1,1.0869347E-1,3.853601E-2,-2.4169182E-2,-1.6996165E-1,-1.2992194E-1,-6.523407E-2,-1.0536098E-1,-1.7375612E-1,-1.543052E-1,-1.8232983E-1,-1.8673043E-1,-1.8588726E-1,-1.7273915E-1,-1.3933368E-1,-1.5906334E-1,-9.374003E-2,-1.5240641E-1,9.605123E-3,-7.3365234E-2,3.0669894E-2,2.2656776E-1,5.1112425E-1,2.975542E-1,6.306736E-2,-4.7410086E-2,-1.2096902E-1,-1.827032E-1,-1.854008E-1,-8.171206E-2,5.1301116E-1,7.2269744E-1,1.4410481E-1,-1.724138E-1,-1.0680128E-1,-1.8202333E-1],"split_indices":[2,0,2,0,0,0,1,0,0,1,0,0,0,0,2,0,2,0,2,1,0,1,0,0,0,0,0,0,0,0,1,0,1,0,0,1,0,0,0,0,0,0,0,1,0,1,0,0,1,2,1,0,0,0,0,0,0,0,0,0,0,0,0,0,0,0,0,0,0,0,0,0,0,0,0,0,0,0,0,0,0,0,0,0,0,0,0,0,0,0,0,0,0,0,0,0,0,0,0,0,0,0,0,0,0,0,0,0,0,0,0,0,0,0,0,0,0,0,0],"split_type":[0,0,0,0,0,0,0,0,0,0,0,0,0,0,0,0,0,0,0,0,0,0,0,0,0,0,0,0,0,0,0,0,0,0,0,0,0,0,0,0,0,0,0,0,0,0,0,0,0,0,0,0,0,0,0,0,0,0,0,0,0,0,0,0,0,0,0,0,0,0,0,0,0,0,0,0,0,0,0,0,0,0,0,0,0,0,0,0,0,0,0,0,0,0,0,0,0,0,0,0,0,0,0,0,0,0,0,0,0,0,0,0,0,0,0,0,0,0,0],"sum_hessian":[2.6843522E5,1.3834561E5,1.3008961E5,1.0993057E5,2.8415043E4,1.888256E4,1.1120705E5,2.8052482E4,8.1878086E4,5.87872E3,2.2536322E4,6.1078403E3,1.2774721E4,1.0448E3,1.1016225E5,2.1444162E4,6.6083203E3,7.323201E4,8.646081E3,2.7376E3,3.14112E3,4.8953604E3,1.764096E4,5.6003203E3,5.0752005E2,5.9225605E3,6.8521606E3,1.1136001E2,9.3344006E2,5.2412803E3,1.0492097E5,1.7335041E4,4.10912E3,3.2275203E3,3.3808003E3,9.555841E3,6.3676164E4,5.79872E3,2.84736E3,8.9536005E2,1.8422401E3,1.6288002E3,1.5123201E3,2.23232E3,2.6630403E3,6.1756807E3,1.1465281E4,4.9104004E3,6.8992004E2,3.9680002E2,1.1072001E2,1.39392E3,4.52864E3,1.11392E3,5.73824E3,9.7600006E1,1.3760001E1,8.3744006E2,9.600001E1,1.6528002E3,3.5884802E3,1.0282497E5,2.0960002E3,1.4025281E4,3.3097603E3,3.3699202E3,7.392001E2,1.6934401E3,1.5340801E3,1.8825602E3,1.4982401E3,3.9411204E3,5.61472E3,5.5718723E4,7.9574404E3,3.2803203E3,2.5184001E3,9.587201E2,1.8886401E3,4.3584003E2,4.5952002E2,1.1446401E3,6.9760004E2,8.3104004E2,7.977601E2,1.1558401E3,3.5648E2,8.649601E2,1.3673601E3,7.8080005E2,1.8822401E3,3.7670403E3,2.4086401E3,2.6464001E3,8.818881E3,4.20768E3,7.0272003E2,5.2608E2,1.6384001E2,3.7536002E2,2.1440002E1,3.6480003E1,7.4240005E1,7.424E2,6.5152E2,3.4796802E3,1.0489601E3,4.1760004E2,6.9632007E2,7.5936005E2,4.9788804E3,8.832001E1,9.280001E0,5.2800003E1,7.846401E2,4.4800003E1,5.1200005E1,1.6928002E3,1.8956802E3],"tree_param":{"num_deleted":"0","num_feature":"3","num_nodes":"119","size_leaf_vector":"1"}},{"base_weights":[-2.1597682E-1,-3.8834617E-1,5.501217E-1,2.8527128E-2,-5.3006387E-1,5.918862E-1,-6.2314987E-2,-1.07189834E-1,4.902125E-1,-5.631597E-1,-1.6685458E-1,2.9816523E-1,6.674493E-1,1.1346935E-1,-4.1184282E-1,-3.351006E-1,-1.8064681E-2,1.4386408E0,4.415715E-1,-3.921542E-1,-5.8175594E-1,-2.6943344E-1,-4.661871E-2,2.0273927E-1,4.1720206E-1,9.1921836E-2,6.900101E-1,1.8161925E0,9.843921E-2,6.695279E-1,-4.3501547E-1,-4.7882232E-1,-2.5120464E-1,2.5936502E-1,-6.985667E-2,1.9123318E0,6.523605E-1,1.6547453E-2,5.601897E-1,-3.2599786E-1,-4.416487E-1,-6.1741495E-1,-5.3211975E-1,-1.54673E-1,-3.1996402E-1,2.0469038E-1,-9.25515E-2,1.4507458E-1,3.9585888E-1,-1.3960423E-1,4.3735757E-1,5.665166E-1,-1.1265629E-1,8.5778207E-1,6.265748E-1,4.7619045E-1,6.2068963E-1,2.0549792E-1,-8.253675E-3,-1.857251E-1,-4.1388544E-1,-1.560257E-1,-1.18733294E-1,-1.4986981E-2,-9.5223166E-2,8.589207E-2,5.9693004E-3,-8.274667E-3,-6.801943E-2,6.859688E-1,4.8977944E-1,3.19385E-1,9.737884E-2,-1.0521496E-1,5.9961602E-2,-8.195768E-2,1.9323567E-1,-5.590675E-2,-1.13295496E-1,-1.6259037E-1,-1.2674884E-1,-1.8598416E-1,-1.6554841E-1,-1.6559803E-1,-1.2895948E-1,-1.2950699E-1,6.66352E-4,-1.010895E-1,-2.6612077E-2,-7.574868E-2,1.9304536E-1,-4.6614572E-2,-8.94668E-3,2.2500545E-2,8.807178E-2,-3.016241E-2,1.5926066E-1,8.823529E-2,-1.3084961E-1,2.1042652E-1,1.1652238E-1,1.4998451E-1,4.1082802E-1,-1.348252E-1,9.248957E-2,2.685267E-1,1.4408681E-1,2.2339594E-1,1.7193098E-1,-0E0,2.3076923E-1,1.0093897E-1,3.8560174E-2,3.864988E-2,-2.2632452E-2,-8.641864E-2,-1.3559887E-1],"categories":[],"categories_nodes":[],"categories_segments":[],"categories_sizes":[],"default_left":[0,0,0,0,0,0,0,0,0,0,0,0,0,0,0,0,0,0,0,0,0,0,0,0,0,0,0,0,0,0,0,0,0,0,0,0,0,0,0,0,0,0,0,0,0,0,0,0,0,0,0,0,0,0,0,0,0,0,0,0,0,0,0,0,0,0,0,0,0,0,0,0,0,0,0,0,0,0,0,0,0,0,0,0,0,0,0,0,0,0,0,0,0,0,0,0,0,0,0,0,0,0,0,0,0,0,0,0,0,0,0,0,0,0,0,0,0],"id":4,"left_children":[1,3,5,7,9,11,13,15,17,19,21,23,25,27,29,31,33,35,37,39,41,43,45,47,49,51,53,55,57,-1,59,61,63,65,67,69,71,73,75,77,79,81,83,85,87,89,91,93,95,97,99,101,103,105,107,109,-1,111,113,-1,115,-1,-1,-1,-1,-1,-1,-1,-1,-1,-1,-1,-1,-1,-1,-1,-1,-1,-1,-1,-1,-1,-1,-1,-1,-1,-1,-1,-1,-1,-1,-1,-1,-1,-1,-1,-1,-1,-1,-1,-1,-1,-1,-1,-1,-1,-1,-1,-1,-1,-1,-1,-1,-1,-1,-1,-1],"loss_changes":[3.5447723E4,1.2946016E4,1.2611514E3,3.4836294E3,1.9657461E3,1.0242285E3,1.9349661E2,8.727598E2,5.820383E2,4.7639844E2,1.684479E2,1.0721942E2,4.7660938E2,5.345524E1,6.552583E1,1.4552148E2,4.4385098E2,2.2807971E2,6.0577026E2,4.800049E1,2.389336E2,4.2690186E1,7.261862E1,5.8353638E1,4.7222107E1,1.3462904E2,3.7542773E2,5.2065086E0,2.3742476E1,0E0,3.8100128E0,1.5046082E1,1.0162927E2,3.134668E1,1.7262225E2,3.6436768E1,3.1138054E1,1.7665662E2,6.5723706E2,4.534546E1,1.5925903E1,1.2724609E1,1.1462207E2,9.801202E1,2.00849E1,1.9519603E2,2.0955692E1,4.2023956E1,8.084343E1,1.9108196E1,5.2151245E1,2.1637527E1,1.3755052E2,1.3602979E2,1.6144727E2,5.8608055E-1,0E0,1.041415E1,9.606745E0,0E0,4.381363E0,0E0,0E0,0E0,0E0,0E0,0E0,0E0,0E0,0E0,0E0,0E0,0E0,0E0,0E0,0E0,0E0,0E0,0E0,0E0,0E0,0E0,0E0,0E0,0E0,0E0,0E0,0E0,0E0,0E0,0E0,0E0,0E0,0E0,0E0,0E0,0E0,0E0,0E0,0E0,0E0,0E0,0E0,0E0,0E0,0E0,0E0,0E0,0E0,0E0,0E0,0E0,0E0,0E0,0E0,0E0,0E0],"parents":[2147483647,0,0,1,1,2,2,3,3,4,4,5,5,6,6,7,7,8,8,9,9,10,10,11,11,12,12,13,13,14,14,15,15,16,16,17,17,18,18,19,19,20,20,21,21,22,22,23,23,24,24,25,25,26,26,27,27,28,28,30,30,31,31,32,32,33,33,34,34,35,35,36,36,37,37,38,38,39,39,40,40,41,41,42,42,43,43,44,44,45,45,46,46,47,47,48,48,49,49,50,50,51,51,52,52,53,53,54,54,55,55,57,57,58,58,60,60],"right_children":[2,4,6,8,10,12,14,16,18,20,22,24,26,28,30,32,34,36,38,40,42,44,46,48,50,52,54,56,58,-1,60,62,64,66,68,70,72,74,76,78,80,82,84,86,88,90,92,94,96,98,100,102,104,106,108,110,-1,112,114,-1,116,-1,-1,-1,-1,-1,-1,-1,-1,-1,-1,-1,-1,-1,-1,-1,-1,-1,-1,-1,-1,-1,-1,-1,-1,-1,-1,-1,-1,-1,-1,-1,-1,-1,-1,-1,-1,-1,-1,-1,-1,-1,-1,-1,-1,-1,-1,-1,-1,-1,-1,-1,-1,-1,-1,-1,-1],"split_conditions":[2.1202E-1,-1.19048E-1,3.498364E0,-1.034048E0,7.984E-2,4.06948E-1,4.941808E0,-1.408121E0,-1.91251E-1,-4.5096E-2,1.33725E-1,3.06938E-1,4.76603E-1,-1.91251E-1,-1.91251E-1,-2.667554E0,9.17656E-1,-5.66538E-1,-2.131481E0,-7.7496E-2,6.41069E-1,9.38652E-1,8.5936E-1,-1.123271E0,2.28614E-1,-1.91251E-1,-1.360411E0,-9.83324E-1,4.00963E0,6.695279E-1,5.77568E-1,-3.213249E0,9.2282E-1,-1.73061E-1,-2.01942E-1,-1.48908E0,-3.20061E-1,-3.593522E0,2.32026E-1,9.29142E-1,4.98062E-1,3.2909E-2,3.7562E-2,5.64395E-1,9.98141E-1,5.24428E-1,1.68417E-1,9.8784E-1,4.12546E-1,-1.91251E-1,8.64115E-1,2.425458E0,2.19443E-1,2.425458E0,8.76529E-1,4.00963E0,6.2068963E-1,8.95807E-1,8.86876E-1,-1.857251E-1,8.92939E-1,-1.560257E-1,-1.18733294E-1,-1.4986981E-2,-9.5223166E-2,8.589207E-2,5.9693004E-3,-8.274667E-3,-6.801943E-2,6.859688E-1,4.8977944E-1,3.19385E-1,9.737884E-2,-1.0521496E-1,5.9961602E-2,-8.195768E-2,1.9323567E-1,-5.590675E-2,-1.13295496E-1,-1.6259037E-1,-1.2674884E-1,-1.8598416E-1,-1.6554841E-1,-1.6559803E-1,-1.2895948E-1,-1.2950699E-1,6.66352E-4,-1.010895E-1,-2.6612077E-2,-7.574868E-2,1.9304536E-1,-4.6614572E-2,-8.94668E-3,2.2500545E-2,8.807178E-2,-3.016241E-2,1.5926066E-1,8.823529E-2,-1.3084961E-1,2.1042652E-1,1.1652238E-1,1.4998451E-1,4.1082802E-1,-1.348252E-1,9.248957E-2,2.685267E-1,1.4408681E-1,2.2339594E-1,1.7193098E-1,-0E0,2.3076923E-1,1.0093897E-1,3.8560174E-2,3.864988E-2,-2.2632452E-2,-8.641864E-2,-1.3559887E-1],"split_indices":[0,0,0,2,0,0,0,0,1,0,0,0,1,1,1,0,1,0,0,0,1,1,1,2,1,1,2,1,0,0,1,0,1,0,0,0,0,0,1,1,1,0,0,1,1,1,0,1,1,1,1,0,1,0,1,0,0,1,1,0,1,0,0,0,0,0,0,0,0,0,0,0,0,0,0,0,0,0,0,0,0,0,0,0,0,0,0,0,0,0,0,0,0,0,0,0,0,0,0,0,0,0,0,0,0,0,0,0,0,0,0,0,0,0,0,0,0],"split_type":[0,0,0,0,0,0,0,0,0,0,0,0,0,0,0,0,0,0,0,0,0,0,0,0,0,0,0,0,0,0,0,0,0,0,0,0,0,0,0,0,0,0,0,0,0,0,0,0,0,0,0,0,0,0,0,0,0,0,0,0,0,0,0,0,0,0,0,0,0,0,0,0,0,0,0,0,0,0,0,0,0,0,0,0,0,0,0,0,0,0,0,0,0,0,0,0,0,0,0,0,0,0,0,0,0,0,0,0,0,0,0,0,0,0,0,0,0],"sum_hessian":[2.6843522E5,2.1913186E5,4.9303363E4,5.5595203E4,1.6353666E5,4.6155844E4,3.1475203E3,4.296576E4,1.262944E4,1.4987905E5,1.3657601E4,9.44544E3,3.6710402E4,2.0947202E3,1.0528E3,1.2077761E4,3.0888002E4,6.1472003E2,1.2014721E4,1.4702401E4,1.3517666E5,7.369281E3,6.2883203E3,5.24416E3,4.2012803E3,1.3849601E3,3.532544E4,1.728E1,2.0774402E3,8.320001E0,1.0444801E3,4.4499204E3,7.6278403E3,4.8585605E3,2.6029441E4,3.8272003E2,2.3200002E2,2.6217603E3,9.392961E3,6.2953604E3,8.407041E3,7.865729E4,5.6519363E4,2.25408E3,5.1152E3,9.712001E2,5.3171206E3,4.0396802E3,1.2044801E3,1.4656001E2,4.0547202E3,4.1664E2,9.6832007E2,9.688641E3,2.5636803E4,3.2000003E0,1.4080001E1,1.0364801E3,1.0409601E3,1.0464001E2,9.398401E2,2.9692803E3,1.4806401E3,1.8886401E3,5.7392E3,4.3670405E3,4.9152002E2,2.050496E4,5.5244805E3,1.6064001E2,2.2208002E2,1.0176001E2,1.3024E2,8.726401E2,1.7491201E3,8.592001E2,8.533761E3,1.7011201E3,4.59424E3,1.3433601E3,7.0636807E3,7.5725125E4,2.9321602E3,4.7318402E4,9.200961E3,8.144001E2,1.43968E3,4.7644805E3,3.5072003E2,4.7584003E2,4.9536005E2,2.6556802E3,2.6614402E3,2.7456E3,1.2940801E3,2.576E2,9.4688007E2,5.9520004E1,8.704001E1,6.3200006E2,3.4227202E3,3.8624002E2,3.0400002E1,5.3792004E2,4.3040002E2,8.816001E3,8.726401E2,7.9868804E3,1.7649922E4,1.6000001E0,1.6000001E0,3.8240002E2,6.5408E2,3.4208002E2,6.9888007E2,2.2048001E2,7.1936005E2],"tree_param":{"num_deleted":"0","num_feature":"3","num_nodes":"117","size_leaf_vector":"1"}},{"base_weights":[-1.863046E-1,3.8836804E-1,-3.4607193E-1,1.04676306E-1,4.6113968E-1,-5.0114393E-1,2.0968143E-2,-1.1340272E-1,1.7562313E-1,5.6524134E-1,2.6011786E-1,-2.2587377E-1,-5.334568E-1,7.163312E-2,-2.2814947E-1,-4.9840957E-1,-5.2978717E-2,1.1189222E-1,2.99486E-1,6.261658E-1,3.8537914E-1,3.6128795E-1,-1.4775687E-2,-1.0950408E-1,-3.8940132E-1,-4.7494605E-1,-5.814313E-1,-1.6081813E-1,1.5212359E-1,-1.2476004E-1,-3.4797937E-1,-5.6328505E-1,-3.503291E-1,-3.3432323E-1,5.990824E-3,3.9666194E-1,4.996699E-2,1.9623813E-1,3.8068113E-1,1.573228E-1,6.505107E-1,4.4935375E-1,2.6261264E-1,5.3799238E-2,3.8387415E-1,-1.3371481E-1,6.524319E-2,-4.0851685E-1,-5.144891E-2,-3.0505505E-1,-4.4624263E-1,-3.500531E-1,-5.0310403E-1,-5.8438444E-1,-2.9780716E-1,-3.2021713E-1,-7.0245355E-2,6.160891E-1,1.3436893E-1,-9.308869E-2,-2.0570605E-1,4.2800787E-1,-3.659799E-1,-1.7283887E-1,-1.3696598E-1,-8.180262E-2,-1.6017632E-1,-1.474569E-1,-6.373623E-2,7.061265E-2,-1.0443767E-2,1.4992876E-1,-1.6809767E-1,-1.11858025E-1,3.5302933E-2,3.0506222E-2,7.836931E-2,1.03550576E-1,1.240702E-1,-1.3585165E-1,6.483277E-2,1.49142E-1,2.0568357E-1,1.4411709E-1,1.12478234E-1,9.4194E-2,6.2794976E-2,-2.7872883E-2,4.3705184E-2,8.721692E-2,1.3629492E-1,-1.4728735E-2,-7.4683286E-2,4.53641E-2,-5.6824693E-3,3.7763752E-2,-1.4033437E-1,2.7618766E-2,-4.1777585E-2,-7.8522064E-2,-1.15560316E-1,-1.0600581E-1,-1.3824956E-1,-1.2108369E-1,-2.7989585E-2,-1.5615211E-1,-1.1580973E-1,-1.7590235E-1,-1.5456921E-1,-1.7756577E-1,4.611859E-1,-1.14372544E-1,-7.300677E-2,-5.8477614E-3,-5.6697667E-2,1.6570613E-1,3.3127633E-1,-9.118655E-2,4.4805393E-2,-2.4543585E-2,-6.537457E-2,-7.5705685E-2,-4.8842303E-2,1.7973731E-1,-1.2477606E-1,-8.93463E-2,-1.2959868E-1],"categories":[],"categories_nodes":[],"categories_segments":[],"categories_sizes":[],"default_left":[0,0,0,0,0,0,0,0,0,0,0,0,0,0,0,0,0,0,0,0,0,0,0,0,0,0,0,0,0,0,0,0,0,0,0,0,0,0,0,0,0,0,0,0,0,0,0,0,0,0,0,0,0,0,0,0,0,0,0,0,0,0,0,0,0,0,0,0,0,0,0,0,0,0,0,0,0,0,0,0,0,0,0,0,0,0,0,0,0,0,0,0,0,0,0,0,0,0,0,0,0,0,0,0,0,0,0,0,0,0,0,0,0,0,0,0,0,0,0,0,0,0,0,0,0,0,0],"id":5,"left_children":[1,3,5,7,9,11,13,15,17,19,21,23,25,27,29,31,33,35,37,39,41,43,45,47,49,51,53,55,57,59,61,63,65,67,69,71,73,75,77,79,81,83,85,87,89,91,93,95,97,99,101,103,105,107,109,111,113,115,117,119,121,123,125,-1,-1,-1,-1,-1,-1,-1,-1,-1,-1,-1,-1,-1,-1,-1,-1,-1,-1,-1,-1,-1,-1,-1,-1,-1,-1,-1,-1,-1,-1,-1,-1,-1,-1,-1,-1,-1,-1,-1,-1,-1,-1,-1,-1,-1,-1,-1,-1,-1,-1,-1,-1,-1,-1,-1,-1,-1,-1,-1,-1,-1,-1,-1,-1],"loss_changes":[2.260434E4,1.1056211E3,1.0964621E4,1.6920486E2,8.918135E2,1.2044414E3,7.221797E2,6.24315E1,6.509996E1,3.074619E2,4.0448737E2,2.707224E2,3.3992578E2,8.8964435E2,1.19762054E2,3.3003006E0,3.852084E1,9.6080345E1,2.3419617E1,2.3928906E2,5.57041E1,7.381372E1,3.725622E1,1.4430923E2,2.8223755E1,1.9186426E2,5.5601562E1,1.7654456E2,2.908556E2,1.3293404E1,6.2712097E1,8.178711E-2,1.473382E0,7.6031837E0,1.7982338E1,9.630534E1,1.2822737E2,7.567539E0,1.6881866E0,3.7280872E1,1.0699609E2,1.0609863E1,6.606888E0,9.835796E0,6.485364E1,1.5338644E1,1.6940418E1,4.2867096E1,8.7766655E1,8.177368E0,4.62323E0,1.3816467E2,9.058301E1,8.613281E0,3.7232797E2,2.0690704E1,4.7004623E1,3.988263E1,2.2344666E2,5.238617E0,2.8795128E0,1.4977793E1,1.9567871E1,0E0,0E0,0E0,0E0,0E0,0E0,0E0,0E0,0E0,0E0,0E0,0E0,0E0,0E0,0E0,0E0,0E0,0E0,0E0,0E0,0E0,0E0,0E0,0E0,0E0,0E0,0E0,0E0,0E0,0E0,0E0,0E0,0E0,0E0,0E0,0E0,0E0,0E0,0E0,0E0,0E0,0E0,0E0,0E0,0E0,0E0,0E0,0E0,0E0,0E0,0E0,0E0,0E0,0E0,0E0,0E0,0E0,0E0,0E0,0E0,0E0,0E0,0E0,0E0],"parents":[2147483647,0,0,1,1,2,2,3,3,4,4,5,5,6,6,7,7,8,8,9,9,10,10,11,11,12,12,13,13,14,14,15,15,16,16,17,17,18,18,19,19,20,20,21,21,22,22,23,23,24,24,25,25,26,26,27,27,28,28,29,29,30,30,31,31,32,32,33,33,34,34,35,35,36,36,37,37,38,38,39,39,40,40,41,41,42,42,43,43,44,44,45,45,46,46,47,47,48,48,49,49,50,50,51,51,52,52,53,53,54,54,55,55,56,56,57,57,58,58,59,59,60,60,61,61,62,62],"right_children":[2,4,6,8,10,12,14,16,18,20,22,24,26,28,30,32,34,36,38,40,42,44,46,48,50,52,54,56,58,60,62,64,66,68,70,72,74,76,78,80,82,84,86,88,90,92,94,96,98,100,102,104,106,108,110,112,114,116,118,120,122,124,126,-1,-1,-1,-1,-1,-1,-1,-1,-1,-1,-1,-1,-1,-1,-1,-1,-1,-1,-1,-1,-1,-1,-1,-1,-1,-1,-1,-1,-1,-1,-1,-1,-1,-1,-1,-1,-1,-1,-1,-1,-1,-1,-1,-1,-1,-1,-1,-1,-1,-1,-1,-1,-1,-1,-1,-1,-1,-1,-1,-1,-1,-1,-1,-1],"split_conditions":[-2.01942E-1,8.48289E-1,1.15041E-1,-1.995736E0,9.75827E-1,-6.7724E-2,1.986049E0,3.61933E-1,7.74418E-1,-5.30543E-1,-4.31448E-1,9.78466E-1,-7.55163E-1,-1.383311E0,-1.196243E0,-2.456683E0,-4.150757E0,1.23104E-1,-9.15506E-1,-4.150757E0,-2.96838E-1,-3.593522E0,-1.444294E0,5.54332E-1,-1.28191E-1,9.35014E-1,1.82942E-1,3.06938E-1,8.8348E-2,3.498364E0,-1.91251E-1,-2.667554E0,1.99733E-1,-5.145107E0,-9.75727E-1,1.387118E0,4.31476E-1,8.09553E-1,-5.30543E-1,8.68451E-1,8.95807E-1,9.58561E-1,9.45524E-1,-5.145107E0,-1.43093E0,-2.74776E-1,-2.96838E-1,-1.14241E-1,-1.37885E-1,9.94326E-1,9.82901E-1,4.8924E-2,6.0082E-2,4.5824E-2,-9.83324E-1,1.96447E-1,9.95387E-1,4.3062E-2,4.85283E-1,9.95932E-1,9.70103E-1,4.00963E0,2.846918E0,-1.7283887E-1,-1.3696598E-1,-8.180262E-2,-1.6017632E-1,-1.474569E-1,-6.373623E-2,7.061265E-2,-1.0443767E-2,1.4992876E-1,-1.6809767E-1,-1.11858025E-1,3.5302933E-2,3.0506222E-2,7.836931E-2,1.03550576E-1,1.240702E-1,-1.3585165E-1,6.483277E-2,1.49142E-1,2.0568357E-1,1.4411709E-1,1.12478234E-1,9.4194E-2,6.2794976E-2,-2.7872883E-2,4.3705184E-2,8.721692E-2,1.3629492E-1,-1.4728735E-2,-7.4683286E-2,4.53641E-2,-5.6824693E-3,3.7763752E-2,-1.4033437E-1,2.7618766E-2,-4.1777585E-2,-7.8522064E-2,-1.15560316E-1,-1.0600581E-1,-1.3824956E-1,-1.2108369E-1,-2.7989585E-2,-1.5615211E-1,-1.1580973E-1,-1.7590235E-1,-1.5456921E-1,-1.7756577E-1,4.611859E-1,-1.14372544E-1,-7.300677E-2,-5.8477614E-3,-5.6697667E-2,1.6570613E-1,3.3127633E-1,-9.118655E-2,4.4805393E-2,-2.4543585E-2,-6.537457E-2,-7.5705685E-2,-4.8842303E-2,1.7973731E-1,-1.2477606E-1,-8.93463E-2,-1.2959868E-1],"split_indices":[0,1,0,0,1,0,0,1,1,0,0,1,2,2,2,0,0,1,0,0,0,0,2,1,0,1,2,0,1,0,1,0,1,0,2,2,1,1,0,1,1,1,1,0,2,0,0,1,0,1,1,0,0,0,1,0,1,1,1,1,1,0,0,0,0,0,0,0,0,0,0,0,0,0,0,0,0,0,0,0,0,0,0,0,0,0,0,0,0,0,0,0,0,0,0,0,0,0,0,0,0,0,0,0,0,0,0,0,0,0,0,0,0,0,0,0,0,0,0,0,0,0,0,0,0,0,0],"split_type":[0,0,0,0,0,0,0,0,0,0,0,0,0,0,0,0,0,0,0,0,0,0,0,0,0,0,0,0,0,0,0,0,0,0,0,0,0,0,0,0,0,0,0,0,0,0,0,0,0,0,0,0,0,0,0,0,0,0,0,0,0,0,0,0,0,0,0,0,0,0,0,0,0,0,0,0,0,0,0,0,0,0,0,0,0,0,0,0,0,0,0,0,0,0,0,0,0,0,0,0,0,0,0,0,0,0,0,0,0,0,0,0,0,0,0,0,0,0,0,0,0,0,0,0,0,0,0],"sum_hessian":[2.4619488E5,5.3556004E4,1.9263888E5,1.0933901E4,4.2622105E4,1.3542312E5,5.7215742E4,2.6837847E3,8.250117E3,2.807915E4,1.4542954E4,1.4227587E4,1.2119555E5,4.7546547E4,9.669196E3,3.6307993E2,2.3207046E3,5.4485757E3,2.801541E3,2.097264E4,7.10651E3,1.0630322E4,3.912631E3,8.31332E3,5.914266E3,5.460682E4,6.658873E4,1.2228998E4,3.5317547E4,5.19177E3,4.477427E3,2.5052057E2,1.1255936E2,4.0132208E2,1.9193826E3,9.722367E2,4.476339E3,1.2347928E3,1.5667482E3,1.0356274E3,1.9937014E4,4.67018E3,2.4363293E3,7.276382E2,9.902685E3,1.5733503E3,2.3392805E3,1.3506694E3,6.9626514E3,2.383613E3,3.530653E3,1.0048919E4,4.4557902E4,6.5901484E4,6.8724207E2,4.430038E3,7.7989595E3,1.3004496E3,3.4017098E4,3.733235E3,1.4585348E3,1.0099156E2,4.376435E3,2.1968486E2,3.0835709E1,8.0848274E1,3.1711084E1,1.7393237E2,2.273897E2,2.8914206E2,1.6302405E3,8.781116E2,9.412513E1,6.1725336E2,3.8590857E3,5.0405936E2,7.307336E2,7.58821E2,8.0792725E2,9.042074E1,9.4520667E2,3.7159124E3,1.6221101E4,3.2919485E3,1.3782319E3,1.2381224E3,1.1982069E3,2.8021628E2,4.474219E2,4.266238E3,5.636447E3,9.079911E2,6.653593E2,1.1569714E3,1.1823092E3,1.3472333E2,1.215946E3,2.6430098E3,4.3196416E3,1.5501185E3,8.334945E2,4.826739E2,3.0479792E3,8.314032E3,1.7348862E3,3.8788457E4,5.7694443E3,6.408085E4,1.8206311E3,5.929049E2,9.4337166E1,2.4672126E3,1.9628256E3,5.464554E3,2.3344053E3,1.1521545E3,1.4829495E2,1.1236714E3,3.2893426E4,3.4254387E3,3.0779636E2,6.964053E2,7.621295E2,8.420755E1,1.6784014E1,2.155976E3,2.220459E3],"tree_param":{"num_deleted":"0","num_feature":"3","num_nodes":"127","size_leaf_vector":"1"}},{"base_weights":[-1.8230113E-1,-2.9229465E-1,4.2763463E-1,3.708104E-1,-4.6314654E-1,2.710385E-1,7.7166784E-1,6.727947E-1,2.2587518E-1,-5.112422E-1,-1.1417254E-1,1.7604475E-1,3.8662452E-1,6.5399134E-1,9.813847E-1,9.550566E-1,5.523328E-1,3.8054377E-1,1.508956E-1,-1.9513151E-1,-5.43917E-1,-2.4633417E-1,-3.2053817E-2,1.8380062E-1,-5.377214E-1,-4.1500777E-1,3.930556E-1,-5.2485627E-1,6.613726E-1,-1.702904E-1,9.8934907E-1,-1.8112418E-1,9.65485E-1,4.815868E-1,8.195793E-1,5.072886E-1,1.0936396E-1,-1.6625586E-1,1.613688E-1,-1.2580082E-1,-2.9204482E-1,-5.846303E-1,-5.022602E-1,-1.5903026E-1,-3.4924236E-1,3.124727E-2,-1.3876347E-1,5.122682E-1,1.7365849E-1,-1.6268586E-1,-2.3714577E-1,-1.6258499E-1,-3.5685033E-1,1.4668444E0,3.8669986E-1,-1.1028603E-1,-1.6725217E-1,7.280151E-1,5.15145E-1,9.1461045E-1,1.1256067E0,3.497877E-1,2.6325887E-1,1.9440298E-1,1.16223134E-1,2.1729062E-1,2.880364E-1,1.756359E-1,1.2381767E-1,6.668991E-2,1.3007191E-2,8.0967255E-2,2.8814986E-2,-1.9274946E-2,-5.5638842E-2,-6.557293E-2,-1.1636396E-1,-1.5072662E-1,-1.7590235E-1,-1.5475741E-1,-1.17853604E-1,-1.1486595E-1,-3.885242E-2,-1.2609087E-1,-9.720181E-2,-1.6652775E-1,1.2787881E-2,-6.739426E-2,-2.1827487E-2,2.5294125E-1,1.3112122E-1,3.9992485E-2,7.072693E-2,-1.0837606E-1,-1.3507785E-2,-1.666237E-1,-9.18511E-2,4.9077615E-1,3.376527E-1,9.818187E-2,1.3305534E-1,3.1986052E-1,2.1278779E-1,1.4216477E-1,2.2128086E-1,4.6095413E-1,2.71802E-1,3.9303476E-1,3.292744E-1],"categories":[],"categories_nodes":[],"categories_segments":[],"categories_sizes":[],"default_left":[0,0,0,0,0,0,0,0,0,0,0,0,0,0,0,0,0,0,0,0,0,0,0,0,0,0,0,0,0,0,0,0,0,0,0,0,0,0,0,0,0,0,0,0,0,0,0,0,0,0,0,0,0,0,0,0,0,0,0,0,0,0,0,0,0,0,0,0,0,0,0,0,0,0,0,0,0,0,0,0,0,0,0,0,0,0,0,0,0,0,0,0,0,0,0,0,0,0,0,0,0,0,0,0,0,0,0,0,0],"id":6,"left_children":[1,3,5,7,9,11,13,15,17,19,21,23,25,27,29,31,33,35,37,39,41,43,45,47,49,51,53,55,57,-1,59,-1,61,63,65,67,69,-1,71,73,75,77,79,81,83,85,87,89,91,-1,93,-1,95,97,99,-1,-1,101,103,105,107,-1,-1,-1,-1,-1,-1,-1,-1,-1,-1,-1,-1,-1,-1,-1,-1,-1,-1,-1,-1,-1,-1,-1,-1,-1,-1,-1,-1,-1,-1,-1,-1,-1,-1,-1,-1,-1,-1,-1,-1,-1,-1,-1,-1,-1,-1,-1,-1],"loss_changes":[1.6547871E4,2.3674912E4,2.0300464E3,1.8736465E3,2.7887734E3,2.8429956E2,2.9025488E2,4.7153076E2,3.3543884E2,1.5082344E3,2.1843488E2,7.880542E1,6.0389282E1,6.607349E1,5.280542E1,6.806714E1,1.836228E2,3.2456787E2,1.4398181E2,9.1894104E1,2.2417578E2,6.9243195E1,8.386693E1,4.6768158E1,8.143616E-2,4.9659348E-1,7.8529785E1,3.921604E-2,7.278027E1,0E0,4.1879395E1,0E0,7.1697266E1,1.2040271E2,2.656482E1,4.73313E1,2.24253E1,0E0,1.3608374E2,2.9284752E1,4.008496E1,9.119141E0,9.713672E1,2.7541092E1,6.2111206E0,5.202082E1,2.618937E1,1.0100708E1,3.4160065E1,0E0,8.071153E-2,0E0,5.044193E-1,2.0738068E0,3.8762207E1,0E0,0E0,3.1879639E1,2.1254578E1,1.3195557E1,6.25708E0,0E0,0E0,0E0,0E0,0E0,0E0,0E0,0E0,0E0,0E0,0E0,0E0,0E0,0E0,0E0,0E0,0E0,0E0,0E0,0E0,0E0,0E0,0E0,0E0,0E0,0E0,0E0,0E0,0E0,0E0,0E0,0E0,0E0,0E0,0E0,0E0,0E0,0E0,0E0,0E0,0E0,0E0,0E0,0E0,0E0,0E0,0E0,0E0],"parents":[2147483647,0,0,1,1,2,2,3,3,4,4,5,5,6,6,7,7,8,8,9,9,10,10,11,11,12,12,13,13,14,14,15,15,16,16,17,17,18,18,19,19,20,20,21,21,22,22,23,23,24,24,25,25,26,26,27,27,28,28,30,30,32,32,33,33,34,34,35,35,36,36,38,38,39,39,40,40,41,41,42,42,43,43,44,44,45,45,46,46,47,47,48,48,50,50,52,52,53,53,54,54,57,57,58,58,59,59,60,60],"right_children":[2,4,6,8,10,12,14,16,18,20,22,24,26,28,30,32,34,36,38,40,42,44,46,48,50,52,54,56,58,-1,60,-1,62,64,66,68,70,-1,72,74,76,78,80,82,84,86,88,90,92,-1,94,-1,96,98,100,-1,-1,102,104,106,108,-1,-1,-1,-1,-1,-1,-1,-1,-1,-1,-1,-1,-1,-1,-1,-1,-1,-1,-1,-1,-1,-1,-1,-1,-1,-1,-1,-1,-1,-1,-1,-1,-1,-1,-1,-1,-1,-1,-1,-1,-1,-1,-1,-1,-1,-1,-1,-1],"split_conditions":[5.96322E-1,-4.00981E-1,2.11673E0,-1.874795E0,1.44357E-1,1.209833E0,3.498364E0,-3.593522E0,-1.331415E0,-1.37885E-1,2.65427E-1,1.82942E-1,-1.91251E-1,-1.91251E-1,-1.91251E-1,-1.91251E-1,9.78466E-1,-6.85324E-1,-1.91251E-1,-2.18484E-1,6.41069E-1,9.72706E-1,9.7331E-1,4.85283E-1,-1.91251E-1,1.416853E0,8.514E-3,2.260351E0,9.64522E-1,-1.702904E-1,4.941808E0,-1.8112418E-1,8.68451E-1,8.5936E-1,9.92005E-1,-1.078815E0,-5.66538E-1,-1.6625586E-1,-1.138634E0,9.60572E-1,9.75827E-1,-5.8931E-2,7.4284E-2,4.70588E-1,1.68417E-1,-1.91251E-1,3.79476E-1,-4.4392E-2,9.32688E-1,-1.6268586E-1,7.92385E-1,-1.6258499E-1,-9.83324E-1,-5.5419E-2,1.576339E0,-1.1028603E-1,-1.6725217E-1,5.24428E-1,9.95387E-1,2.366E-1,6.85353E-1,3.497877E-1,2.6325887E-1,1.9440298E-1,1.16223134E-1,2.1729062E-1,2.880364E-1,1.756359E-1,1.2381767E-1,6.668991E-2,1.3007191E-2,8.0967255E-2,2.8814986E-2,-1.9274946E-2,-5.5638842E-2,-6.557293E-2,-1.1636396E-1,-1.5072662E-1,-1.7590235E-1,-1.5475741E-1,-1.17853604E-1,-1.1486595E-1,-3.885242E-2,-1.2609087E-1,-9.720181E-2,-1.6652775E-1,1.2787881E-2,-6.739426E-2,-2.1827487E-2,2.5294125E-1,1.3112122E-1,3.9992485E-2,7.072693E-2,-1.0837606E-1,-1.3507785E-2,-1.666237E-1,-9.18511E-2,4.9077615E-1,3.376527E-1,9.818187E-2,1.3305534E-1,3.1986052E-1,2.1278779E-1,1.4216477E-1,2.2128086E-1,4.6095413E-1,2.71802E-1,3.9303476E-1,3.292744E-1],"split_indices":[0,0,0,0,0,0,0,0,2,0,0,2,1,1,1,1,1,0,1,0,1,1,1,1,1,0,1,0,1,0,0,0,1,1,1,0,0,0,0,1,1,0,0,1,0,1,0,1,0,0,0,0,1,1,0,0,0,1,1,1,1,0,0,0,0,0,0,0,0,0,0,0,0,0,0,0,0,0,0,0,0,0,0,0,0,0,0,0,0,0,0,0,0,0,0,0,0,0,0,0,0,0,0,0,0,0,0,0,0],"split_type":[0,0,0,0,0,0,0,0,0,0,0,0,0,0,0,0,0,0,0,0,0,0,0,0,0,0,0,0,0,0,0,0,0,0,0,0,0,0,0,0,0,0,0,0,0,0,0,0,0,0,0,0,0,0,0,0,0,0,0,0,0,0,0,0,0,0,0,0,0,0,0,0,0,0,0,0,0,0,0,0,0,0,0,0,0,0,0,0,0,0,0,0,0,0,0,0,0,0,0,0,0,0,0,0,0,0,0,0,0],"sum_hessian":[2.4665267E5,2.0896858E5,3.768409E4,4.2810934E4,1.6615764E5,2.5897791E4,1.1786301E4,1.3882328E4,2.8928605E4,1.4603112E5,2.0126516E4,1.4216531E4,1.1681259E4,7.5525337E3,4.2337666E3,4.150379E3,9.731949E3,9.443791E3,1.9484814E4,1.3681085E4,1.3235005E5,7.7123247E3,1.2414191E4,1.4064448E4,1.5208365E2,9.24612E1,1.1588798E4,4.6559395E1,7.5059746E3,2.1297354E1,4.212469E3,2.7203358E1,4.1231753E3,7.6971465E3,2.0348027E3,6.4352124E3,3.0085786E3,2.8442926E2,1.9200385E4,7.976841E3,5.704244E3,6.69264E4,6.542365E4,4.173885E3,3.53844E3,7.792387E3,4.6218047E3,4.1977957E2,1.3644668E4,1.4901642E2,3.0672333E0,2.6437193E1,6.6024E1,6.68381E1,1.152196E4,1.01138E1,3.6445595E1,5.153372E3,2.3526023E3,2.7253184E3,1.4871509E3,1.2536079E3,2.8695676E3,2.7794973E3,4.9176494E3,1.2163556E3,8.1844714E2,3.5202415E3,2.9149707E3,1.1089039E3,1.8996746E3,7.213163E3,1.1987222E4,3.9272866E3,4.0495542E3,3.2307717E3,2.4734724E3,1.370414E3,6.5555984E4,5.8188457E4,7.2351914E3,4.8492242E2,3.6889624E3,9.232099E2,2.61523E3,1.4743701E2,7.64495E3,2.0074127E3,2.6143918E3,7.58457E1,3.4393387E2,8.272489E3,5.372179E3,1.3286084E0,1.7386249E0,1.1400025E1,5.4623978E1,4.2161327E1,2.4676771E1,5.634983E3,5.886977E3,2.6739767E2,4.8859746E3,1.9871475E3,3.654549E2,3.4765774E1,2.6905525E3,1.9006711E2,1.2970839E3],"tree_param":{"num_deleted":"0","num_feature":"3","num_nodes":"109","size_leaf_vector":"1"}},{"base_weights":[2.660387E-1,-5.298924E-1,1.16358E0,-8.100721E-3,-5.9099424E-1,-4.0919372E-1,1.210901E0,-5.662425E-1,2.6893294E-1,-5.932213E-1,-4.844425E-1,-5.3899175E-1,7.463668E-2,1.2546136E0,-3.9210477E-1,-5.8592784E-1,-3.4385195E-1,1.0770608E0,-5.350987E-1,-5.555171E-1,-1.780431E-1,-4.023451E-1,-5.8709085E-1,-5.793529E-1,-3.9365414E-1,3.398267E-1,-2.537171E-1,1.2674613E0,-1.7848101E-1,-2.4610069E-2,-5.449E-1,-1.7798555E-1,-5.3016347E-1,-8.832315E-2,-4.3925065E-1,2.5866362E-1,1.1635389E0,-6.755817E-2,-5.705017E-1,-5.3030676E-1,-1.770261E-1,-5.2987087E-1,1.5844113E-1,-5.185982E-1,-1.7724642E-1,-1.7700416E-1,-5.4117715E-1,-2.5039676E-1,-5.354286E-1,5.727846E-1,-1.7668466E-1,-3.0514353E-3,-3.3323434E-1,7.641123E-1,1.2720793E0,1.8569499E-1,-3.5977927E-1,-4.0413E-1,-5.756798E-1,-1.2245417E-1,-1.6520901E-1,-8.5585244E-2,4.161681E-2,-1.431078E-1,-1.07816465E-1,-5.226317E-3,1.4203781E-1,3.6018425E-1,2.0038888E-1,3.733544E-2,-5.296579E-2,-1.4277662E-1,-1.786922E-1,-1.7775425E-1,-1.3223206E-1,-1.7285848E-1,-9.172201E-2,2.2040075E-1,-2.7255226E-2,-1.2153033E-1,-1.6655888E-1,-1.77198E-1,-1.3846952E-1,-3.748268E-2,-1.776424E-1,-1.6995965E-1,-1.4275555E-1,1.20118424E-1,2.532602E-1,-6.562243E-2,4.1449554E-2,-1.240707E-1,-6.3842736E-2,3.0858118E-2,2.8766313E-1,3.8282493E-1,2.55208E-1,-1.6258289E-1,1.4180477E-1,-8.5960746E-2,-1.5174834E-1,-8.5135125E-2,-1.691438E-1,-1.6442424E-1,-1.7843959E-1],"categories":[],"categories_nodes":[],"categories_segments":[],"categories_sizes":[],"default_left":[0,0,0,0,0,0,0,0,0,0,0,0,0,0,0,0,0,0,0,0,0,0,0,0,0,0,0,0,0,0,0,0,0,0,0,0,0,0,0,0,0,0,0,0,0,0,0,0,0,0,0,0,0,0,0,0,0,0,0,0,0,0,0,0,0,0,0,0,0,0,0,0,0,0,0,0,0,0,0,0,0,0,0,0,0,0,0,0,0,0,0,0,0,0,0,0,0,0,0,0,0,0,0,0,0],"id":7,"left_children":[1,3,5,7,9,11,13,15,17,19,21,23,25,27,29,31,33,35,37,39,-1,41,43,45,47,49,51,53,-1,55,57,-1,59,61,63,65,67,69,71,73,-1,75,77,79,-1,-1,81,83,85,87,-1,89,91,93,95,97,99,101,103,-1,-1,-1,-1,-1,-1,-1,-1,-1,-1,-1,-1,-1,-1,-1,-1,-1,-1,-1,-1,-1,-1,-1,-1,-1,-1,-1,-1,-1,-1,-1,-1,-1,-1,-1,-1,-1,-1,-1,-1,-1,-1,-1,-1,-1,-1],"loss_changes":[2.0158794E5,4.768293E3,9.871281E3,2.4244275E3,3.1480469E1,2.4336731E2,9.022422E3,2.2567871E1,6.8090996E3,9.375E-1,2.2908142E1,1.7693481E1,7.152865E1,2.9790469E3,1.9194312E2,1.6450195E0,1.0330254E1,3.6958057E2,8.691467E1,4.704895E-1,0E0,1.0943967E2,4.8828125E-3,6.5301514E-1,1.3415947E1,9.863502E1,7.3170357E0,2.88375E2,0E0,7.0905914E1,1.022937E1,0E0,1.1932373E0,5.266558E0,7.621956E-1,2.970401E1,8.6041016E1,7.7845345E0,1.13272705E1,2.6890717E0,0E0,1.276123E1,4.0874226E1,7.0453644E-2,0E0,0E0,1.829422E0,1.4233673E1,3.501358E-1,1.6680145E1,0E0,2.75412E0,2.6083946E0,1.4596234E2,2.0698438E2,1.2934573E2,4.003479E0,8.229897E0,7.182007E-1,0E0,0E0,0E0,0E0,0E0,0E0,0E0,0E0,0E0,0E0,0E0,0E0,0E0,0E0,0E0,0E0,0E0,0E0,0E0,0E0,0E0,0E0,0E0,0E0,0E0,0E0,0E0,0E0,0E0,0E0,0E0,0E0,0E0,0E0,0E0,0E0,0E0,0E0,0E0,0E0,0E0,0E0,0E0,0E0,0E0,0E0],"parents":[2147483647,0,0,1,1,2,2,3,3,4,4,5,5,6,6,7,7,8,8,9,9,10,10,11,11,12,12,13,13,14,14,15,15,16,16,17,17,18,18,19,19,21,21,22,22,23,23,24,24,25,25,26,26,27,27,29,29,30,30,32,32,33,33,34,34,35,35,36,36,37,37,38,38,39,39,41,41,42,42,43,43,46,46,47,47,48,48,49,49,51,51,52,52,53,53,54,54,55,55,56,56,57,57,58,58],"right_children":[2,4,6,8,10,12,14,16,18,20,22,24,26,28,30,32,34,36,38,40,-1,42,44,46,48,50,52,54,-1,56,58,-1,60,62,64,66,68,70,72,74,-1,76,78,80,-1,-1,82,84,86,88,-1,90,92,94,96,98,100,102,104,-1,-1,-1,-1,-1,-1,-1,-1,-1,-1,-1,-1,-1,-1,-1,-1,-1,-1,-1,-1,-1,-1,-1,-1,-1,-1,-1,-1,-1,-1,-1,-1,-1,-1,-1,-1,-1,-1,-1,-1,-1,-1,-1,-1,-1,-1],"split_conditions":[-7.55163E-1,8.41702E-1,-2.55164E-1,-1.10689E-1,-1.034048E0,-4.95086E-1,2.4594E-1,-2.36467E-1,6.0082E-2,8.64115E-1,6.4342E-2,-8.17407E-1,4.31476E-1,1.82942E-1,5.60358E-1,-4.31448E-1,7.45988E-1,-3.2591E-2,1.44357E-1,6.4342E-2,-1.780431E-1,-5.1565E-2,1.24167E-1,-1.138634E0,4.85283E-1,1.82942E-1,5.24428E-1,-1.19048E-1,-1.7848101E-1,4.53342E-1,7.92385E-1,-1.7798555E-1,-9.75727E-1,-1.6058E-1,-1.48622E-1,-6.3131E-2,3.0876E-2,8.5703E-2,4.63267E-1,-2.55164E-1,-1.770261E-1,-2.36467E-1,8.48289E-1,8.48289E-1,-1.7724642E-1,-1.7700416E-1,-4.25153E-1,1.82942E-1,-6.0358E-1,2.83637E-1,-1.7668466E-1,-3.72363E-1,-3.45596E-1,-5.34674E-1,1.15041E-1,-1.14241E-1,6.30108E-1,4.80258E-1,4.48239E-1,-1.2245417E-1,-1.6520901E-1,-8.5585244E-2,4.161681E-2,-1.431078E-1,-1.07816465E-1,-5.226317E-3,1.4203781E-1,3.6018425E-1,2.0038888E-1,3.733544E-2,-5.296579E-2,-1.4277662E-1,-1.786922E-1,-1.7775425E-1,-1.3223206E-1,-1.7285848E-1,-9.172201E-2,2.2040075E-1,-2.7255226E-2,-1.2153033E-1,-1.6655888E-1,-1.77198E-1,-1.3846952E-1,-3.748268E-2,-1.776424E-1,-1.6995965E-1,-1.4275555E-1,1.20118424E-1,2.532602E-1,-6.562243E-2,4.1449554E-2,-1.240707E-1,-6.3842736E-2,3.0858118E-2,2.8766313E-1,3.8282493E-1,2.55208E-1,-1.6258289E-1,1.4180477E-1,-8.5960746E-2,-1.5174834E-1,-8.5135125E-2,-1.691438E-1,-1.6442424E-1,-1.7843959E-1],"split_indices":[2,1,0,0,2,0,0,0,0,1,0,0,1,2,0,0,1,0,0,0,0,0,0,0,1,2,1,0,0,1,0,0,2,0,0,0,0,0,0,0,0,0,1,1,0,0,2,2,0,1,0,0,0,2,0,1,1,1,1,0,0,0,0,0,0,0,0,0,0,0,0,0,0,0,0,0,0,0,0,0,0,0,0,0,0,0,0,0,0,0,0,0,0,0,0,0,0,0,0,0,0,0,0,0,0],"split_type":[0,0,0,0,0,0,0,0,0,0,0,0,0,0,0,0,0,0,0,0,0,0,0,0,0,0,0,0,0,0,0,0,0,0,0,0,0,0,0,0,0,0,0,0,0,0,0,0,0,0,0,0,0,0,0,0,0,0,0,0,0,0,0,0,0,0,0,0,0,0,0,0,0,0,0,0,0,0,0,0,0,0,0,0,0,0,0,0,0,0,0,0,0,0,0,0,0,0,0,0,0,0,0,0,0],"sum_hessian":[2.821836E5,1.4955769E5,1.326259E5,1.5677511E4,1.3388017E5,3.8736213E3,1.2875229E5,5.199996E3,1.0477515E4,1.3113477E5,2.7454084E3,3.054162E3,8.194592E2,1.2533474E5,3.417551E3,4.775636E3,4.2435977E2,5.2252773E3,5.2522373E3,8.97918E2,1.3023684E5,1.5281364E3,1.2172722E3,2.3880103E3,6.6615186E2,4.533129E2,3.6614633E2,1.2447044E5,8.643052E2,1.00398425E3,2.413567E3,4.210486E3,5.6515045E2,1.158846E2,3.0847516E2,4.997565E2,4.725521E3,3.699178E2,4.88232E3,5.287004E2,3.6921765E2,1.2450585E3,2.830778E2,7.010758E1,1.1471647E3,1.8554122E3,5.325981E2,3.3271884E2,3.3343298E2,3.6271826E2,9.059465E1,8.842832E1,2.7771802E2,1.1331151E3,1.2333732E5,6.171768E2,3.8680743E2,4.3558206E2,1.9779849E3,8.4433075E1,4.8071738E2,6.1916164E1,5.396843E1,2.0604277E2,1.02432396E2,2.1908173E2,2.8067477E2,4.395278E3,3.3024323E2,1.3389696E2,2.3602083E2,1.0293943E3,3.8529255E3,3.086404E2,2.2005998E2,1.0305009E3,2.1455771E2,8.489635E1,1.9818146E2,2.0037287E1,5.0070297E1,3.2449155E2,2.0810655E2,2.4437453E2,8.834433E1,2.1347409E2,1.1995889E2,2.2333943E2,1.3937883E2,3.477107E1,5.3657253E1,1.6512819E2,1.12589836E2,2.581591E2,8.7495605E2,1.22174516E5,1.1628044E3,1.7431763E2,4.428592E2,2.5958652E2,1.27220924E2,2.4996826E2,1.8561378E2,8.2161304E2,1.1563718E3],"tree_param":{"num_deleted":"0","num_feature":"3","num_nodes":"105","size_leaf_vector":"1"}},{"base_weights":[2.0939195E-1,-4.6918458E-1,6.533146E-1,5.6270706E-3,-5.612938E-1,8.353294E-1,-4.2400286E-1,-5.4590476E-1,2.1476474E-1,1.056289E0,-5.865123E-1,-3.8107827E-1,1.0725977E0,-6.2881574E-2,-5.350136E-1,-5.8464533E-1,-3.782115E-1,7.2758484E-1,-4.9171874E-1,-5.536981E-1,1.1566318E0,-4.9354276E-1,-5.9145194E-1,-5.27551E-1,5.898342E-3,1.1171261E0,5.3776336E-1,7.676452E-2,-2.2312371E-1,-4.2384613E-1,-5.764503E-1,-1.7756347E-1,-5.4133755E-1,-4.1995686E-1,-2.4682665E-1,1.7122266E-1,8.3715475E-1,-1.7548215E-1,-5.6832546E-1,-1.7598738E-1,-2.4754402E-1,1.2307723E0,-3.6103758E-1,-5.86378E-1,-4.4429556E-1,-1.7962359E-1,-5.9083617E-1,-5.663565E-1,-3.867048E-1,-1.9812325E-1,1.3901265E-1,6.249026E-1,1.1644802E0,2.8269327E-1,6.608868E-1,1.8477274E-1,-1.383858E-1,-1.13487646E-1,-3.3409223E-1,-3.528631E-1,-4.9128604E-1,-5.3835475E-1,-5.9031254E-1,-1.7650887E-1,-1.523388E-1,-1.3027528E-1,-1.0442956E-1,-7.02869E-2,-1.2511176E-1,-2.4860693E-2,9.030012E-2,2.716188E-1,9.893374E-2,-3.5505697E-2,-9.1579445E-2,-1.3906804E-1,-1.7612496E-1,4.011089E-2,-1.1832018E-1,1.213982E-1,3.738993E-1,3.345061E-2,-1.6281043E-1,-1.7836231E-1,-1.5603018E-1,-8.368784E-2,-1.711968E-1,-1.7735106E-1,-1.7112115E-1,-1.7354178E-1,-1.5662937E-1,-9.710801E-2,-1.339223E-1,-9.6900195E-2,-2.8005002E-2,-1.0438439E-2,9.522694E-2,9.19282E-2,2.2721834E-1,3.564265E-1,2.837063E-1,1.3186595E-1,3.8625278E-2,2.32026E-1,1.3721403E-1,8.2171746E-2,3.5685003E-2,-4.9177155E-2,1.0701347E-2,-7.9475164E-2,-1.1621506E-2,-1.3556634E-1,-8.227725E-2,-9.103875E-2,-1.3234271E-1,-1.6708167E-1,-1.36176E-1,-1.6492084E-1,-1.3006283E-1,-1.7351912E-1,-1.781532E-1],"categories":[],"categories_nodes":[],"categories_segments":[],"categories_sizes":[],"default_left":[0,0,0,0,0,0,0,0,0,0,0,0,0,0,0,0,0,0,0,0,0,0,0,0,0,0,0,0,0,0,0,0,0,0,0,0,0,0,0,0,0,0,0,0,0,0,0,0,0,0,0,0,0,0,0,0,0,0,0,0,0,0,0,0,0,0,0,0,0,0,0,0,0,0,0,0,0,0,0,0,0,0,0,0,0,0,0,0,0,0,0,0,0,0,0,0,0,0,0,0,0,0,0,0,0,0,0,0,0,0,0,0,0,0,0,0,0,0,0,0,0],"id":8,"left_children":[1,3,5,7,9,11,13,15,17,19,21,23,25,27,29,31,33,35,37,39,41,43,45,47,49,51,53,55,57,59,61,-1,63,65,67,69,71,73,75,-1,77,79,81,83,85,-1,87,89,91,93,95,97,99,101,103,105,107,109,111,113,115,117,119,-1,-1,-1,-1,-1,-1,-1,-1,-1,-1,-1,-1,-1,-1,-1,-1,-1,-1,-1,-1,-1,-1,-1,-1,-1,-1,-1,-1,-1,-1,-1,-1,-1,-1,-1,-1,-1,-1,-1,-1,-1,-1,-1,-1,-1,-1,-1,-1,-1,-1,-1,-1,-1,-1,-1,-1,-1,-1],"loss_changes":[8.353406E4,4.7962754E3,3.287189E4,2.055473E3,3.7474531E3,4.1390188E4,9.7129395E2,3.1608276E1,4.6814785E3,2.2848157E2,4.1240234E1,1.3267908E3,2.8572656E3,1.2752626E2,8.512451E1,9.256592E-1,4.954834E0,4.5625684E2,1.3156287E2,6.956959E-1,1.4986255E2,2.0627686E1,3.515625E-2,9.258984E1,1.7460626E2,2.5813594E3,2.895232E2,7.079701E1,3.224704E1,2.3934082E1,6.8100586E0,0E0,6.1769104E-1,5.6627655E-1,3.8202286E-1,4.0687176E1,2.1626318E2,7.832573E0,8.324463E0,0E0,6.0312647E-1,1.57717285E1,5.436242E0,5.458374E-1,6.229486E1,0E0,2.0117188E-1,6.8359375E0,1.36657715E1,3.3183372E1,1.2065785E2,4.1008276E2,5.2084375E2,7.250592E1,1.4211328E2,1.1865913E1,4.53298E0,1.5116377E1,9.167847E0,1.0581482E1,6.076111E0,4.071045E0,7.299805E-2,0E0,0E0,0E0,0E0,0E0,0E0,0E0,0E0,0E0,0E0,0E0,0E0,0E0,0E0,0E0,0E0,0E0,0E0,0E0,0E0,0E0,0E0,0E0,0E0,0E0,0E0,0E0,0E0,0E0,0E0,0E0,0E0,0E0,0E0,0E0,0E0,0E0,0E0,0E0,0E0,0E0,0E0,0E0,0E0,0E0,0E0,0E0,0E0,0E0,0E0,0E0,0E0,0E0,0E0,0E0,0E0,0E0,0E0],"parents":[2147483647,0,0,1,1,2,2,3,3,4,4,5,5,6,6,7,7,8,8,9,9,10,10,11,11,12,12,13,13,14,14,15,15,16,16,17,17,18,18,19,19,20,20,21,21,22,22,23,23,24,24,25,25,26,26,27,27,28,28,29,29,30,30,32,32,33,33,34,34,35,35,36,36,37,37,38,38,40,40,41,41,42,42,43,43,44,44,46,46,47,47,48,48,49,49,50,50,51,51,52,52,53,53,54,54,55,55,56,56,57,57,58,58,59,59,60,60,61,61,62,62],"right_children":[2,4,6,8,10,12,14,16,18,20,22,24,26,28,30,32,34,36,38,40,42,44,46,48,50,52,54,56,58,60,62,-1,64,66,68,70,72,74,76,-1,78,80,82,84,86,-1,88,90,92,94,96,98,100,102,104,106,108,110,112,114,116,118,120,-1,-1,-1,-1,-1,-1,-1,-1,-1,-1,-1,-1,-1,-1,-1,-1,-1,-1,-1,-1,-1,-1,-1,-1,-1,-1,-1,-1,-1,-1,-1,-1,-1,-1,-1,-1,-1,-1,-1,-1,-1,-1,-1,-1,-1,-1,-1,-1,-1,-1,-1,-1,-1,-1,-1,-1,-1,-1],"split_conditions":[9.12193E-1,-1.024055E0,3.54808E-1,-3.45596E-1,-9.83324E-1,-3.20061E-1,5.96322E-1,-6.0358E-1,2.4594E-1,-4.62526E-1,-9.6546E-1,-6.0358E-1,1.68417E-1,-1.344969E0,9.32688E-1,-8.17407E-1,-4.00981E-1,-1.37885E-1,4.94042E-1,-5.66538E-1,5.27044E-1,-2.96838E-1,-4.00981E-1,-8.6555E-1,9.6756E-1,-1.48622E-1,9.68421E-1,4.94042E-1,4.63267E-1,-1.344969E0,1.274995E0,-1.7756347E-1,8.83593E-1,-4.31448E-1,-1.034048E0,-2.55164E-1,1.44357E-1,4.06948E-1,7.09547E-1,-1.7598738E-1,-5.30543E-1,-3.20061E-1,7.92385E-1,-4.62526E-1,2.4594E-1,-1.7962359E-1,8.09553E-1,-1.138634E0,-1.336637E0,9.44639E-1,-4.31448E-1,9.65135E-1,8.5703E-2,2.4594E-1,2.65427E-1,4.06948E-1,9.97733E-1,9.42746E-1,9.42746E-1,7.92385E-1,9.43718E-1,9.95126E-1,1.576339E0,-1.7650887E-1,-1.523388E-1,-1.3027528E-1,-1.0442956E-1,-7.02869E-2,-1.2511176E-1,-2.4860693E-2,9.030012E-2,2.716188E-1,9.893374E-2,-3.5505697E-2,-9.1579445E-2,-1.3906804E-1,-1.7612496E-1,4.011089E-2,-1.1832018E-1,1.213982E-1,3.738993E-1,3.345061E-2,-1.6281043E-1,-1.7836231E-1,-1.5603018E-1,-8.368784E-2,-1.711968E-1,-1.7735106E-1,-1.7112115E-1,-1.7354178E-1,-1.5662937E-1,-9.710801E-2,-1.339223E-1,-9.6900195E-2,-2.8005002E-2,-1.0438439E-2,9.522694E-2,9.19282E-2,2.2721834E-1,3.564265E-1,2.837063E-1,1.3186595E-1,3.8625278E-2,2.32026E-1,1.3721403E-1,8.2171746E-2,3.5685003E-2,-4.9177155E-2,1.0701347E-2,-7.9475164E-2,-1.1621506E-2,-1.3556634E-1,-8.227725E-2,-9.103875E-2,-1.3234271E-1,-1.6708167E-1,-1.36176E-1,-1.6492084E-1,-1.3006283E-1,-1.7351912E-1,-1.781532E-1],"split_indices":[1,2,0,0,1,0,0,0,0,0,2,0,0,2,0,0,0,0,0,0,0,0,0,0,1,0,1,0,0,2,0,0,1,0,2,0,0,0,0,0,0,0,0,0,0,0,1,0,2,1,0,1,0,0,0,0,1,1,1,0,1,1,0,0,0,0,0,0,0,0,0,0,0,0,0,0,0,0,0,0,0,0,0,0,0,0,0,0,0,0,0,0,0,0,0,0,0,0,0,0,0,0,0,0,0,0,0,0,0,0,0,0,0,0,0,0,0,0,0,0,0],"split_type":[0,0,0,0,0,0,0,0,0,0,0,0,0,0,0,0,0,0,0,0,0,0,0,0,0,0,0,0,0,0,0,0,0,0,0,0,0,0,0,0,0,0,0,0,0,0,0,0,0,0,0,0,0,0,0,0,0,0,0,0,0,0,0,0,0,0,0,0,0,0,0,0,0,0,0,0,0,0,0,0,0,0,0,0,0,0,0,0,0,0,0,0,0,0,0,0,0,0,0,0,0,0,0,0,0,0,0,0,0,0,0,0,0,0,0,0,0,0,0,0,0],"sum_hessian":[2.7730278E5,1.0966685E5,1.676359E5,1.7818033E4,9.184882E4,1.4340722E5,2.4228693E4,4.8984287E3,1.2919604E4,1.409337E3,9.0439484E4,2.3406766E4,1.2000045E5,5.697175E3,1.853152E4,3.9771406E3,9.2128796E2,7.4858022E3,5.4338013E3,8.2419014E1,1.3269181E3,4.5678765E3,8.587161E4,1.697955E4,6.427215E3,1.1077653E5,9.223924E3,3.0445042E3,2.652671E3,5.034923E3,1.3496596E4,3.397118E3,5.800227E2,6.97479E2,2.2380894E2,1.2321068E3,6.2536953E3,1.0602645E3,4.373537E3,7.3588554E1,8.83046E0,1.2652955E3,6.1622543E1,1.5794916E3,2.988385E3,6.6101055E3,7.92615E4,1.3309531E4,3.6700195E3,2.5375205E3,3.8896943E3,9.723165E3,1.0105336E5,3.0039846E3,6.2199395E3,2.0270435E3,1.0174607E3,1.3353639E3,1.3173069E3,2.456061E3,2.578862E3,3.6115015E3,9.885095E3,2.345885E2,3.4543417E2,5.7754974E2,1.1992926E2,2.1066861E2,1.3140337E1,4.1667023E2,8.154365E2,5.5116084E3,7.420872E2,7.375221E2,3.2274246E2,6.6805164E2,3.7054854E3,2.4805071E0,6.349952E0,2.3888899E1,1.2414066E3,1.7219034E1,4.440351E1,1.3991906E3,1.8030113E2,1.2959323E3,1.6924528E3,7.7959125E4,1.3023768E3,1.0439562E4,2.869969E3,1.7886583E3,1.8813611E3,1.1567397E3,1.3807809E3,1.9706716E3,1.9190228E3,2.8575894E3,6.8655757E3,9.12075E4,9.845864E3,1.486974E3,1.5170105E3,4.0033867E3,2.216553E3,8.5971277E2,1.1673307E3,8.8732806E2,1.3013264E2,4.4048044E2,8.9488354E2,4.4152737E2,8.757795E2,1.5776521E3,8.784089E2,9.303371E2,1.6485249E3,3.2539202E3,3.5758124E2,2.2975786E3,7.5875156E3],"tree_param":{"num_deleted":"0","num_feature":"3","num_nodes":"121","size_leaf_vector":"1"}},{"base_weights":[-1.7117392E-1,-3.3670944E-1,3.9267695E-1,2.5962584E-2,-4.8812488E-1,4.1216663E-1,-1.5190352E-1,3.4126514E-1,-8.78154E-2,-5.2103883E-1,-1.4396325E-1,1.8410864E-1,4.5634958E-1,3.0524028E-2,-3.560956E-1,-2.3779906E-1,3.778979E-1,-3.2819146E-1,-2.4446769E-2,-5.7843816E-1,-4.5978484E-1,-2.3500162E-1,-5.6616616E-2,3.3977774E-1,1.4753874E-1,2.4496224E-2,4.6849152E-1,3.5546875E-1,1.5314615E-2,3.8966194E-1,-3.7936017E-1,4.0975782E-1,-3.157746E-1,8.600781E-1,3.5047615E-1,-4.7738558E-1,-2.6785216E-1,1.7496786E-1,-6.729885E-2,-4.1366252E-1,-5.8214563E-1,-3.3044246E-1,-4.8815063E-1,-1.4621311E-1,-2.7645788E-1,1.4350525E-1,-9.441594E-2,-1.1542052E-1,4.8707017E-1,8.774566E-2,2.4337433E-1,4.1488144E-1,-2.4905276E-1,4.9149975E-1,2.633736E-1,4.3191865E-2,-2.4016875E-1,-1.7578623E-1,-3.5680673E-1,-1.4419888E-1,-7.189218E-2,3.1951365E-1,1.2210223E-1,-6.384753E-2,1.18100785E-1,-1.5369557E-1,-1.3248305E-1,-4.1310262E-2,-9.607756E-2,5.913276E-2,-2.4940842E-3,-1.01540685E-2,-6.358853E-2,-1.3283592E-1,-1.8813025E-2,-1.7533323E-1,-1.5179716E-1,-1.0153037E-2,-1.1252684E-1,-1.532716E-1,-1.11833215E-1,-1.24148704E-1,-6.959232E-3,-8.82907E-2,-1.4443583E-2,-6.0729176E-2,1.315943E-1,4.7625087E-2,-3.2486726E-2,-6.836626E-2,7.907186E-2,2.1123286E-1,1.10796236E-1,1.2142735E-1,2.1821635E-2,5.4530296E-2,1.1459616E-1,1.0940984E-1,2.555143E-1,-1.2242387E-1,5.3128608E-2,1.3749215E-1,1.8465713E-1,9.682874E-2,6.0270548E-2,-4.5499697E-2,2.1937367E-2,-4.873521E-2,-1.3356766E-1,-6.817324E-2,-1.2050446E-1],"categories":[],"categories_nodes":[],"categories_segments":[],"categories_sizes":[],"default_left":[0,0,0,0,0,0,0,0,0,0,0,0,0,0,0,0,0,0,0,0,0,0,0,0,0,0,0,0,0,0,0,0,0,0,0,0,0,0,0,0,0,0,0,0,0,0,0,0,0,0,0,0,0,0,0,0,0,0,0,0,0,0,0,0,0,0,0,0,0,0,0,0,0,0,0,0,0,0,0,0,0,0,0,0,0,0,0,0,0,0,0,0,0,0,0,0,0,0,0,0,0,0,0,0,0,0,0,0,0,0,0],"id":9,"left_children":[1,3,5,7,9,11,13,15,17,19,21,23,25,27,29,31,33,35,37,39,41,43,45,47,49,51,53,-1,55,-1,57,-1,59,61,63,65,67,69,71,73,75,77,79,81,83,85,87,89,91,93,95,97,99,101,103,105,107,-1,109,-1,-1,-1,-1,-1,-1,-1,-1,-1,-1,-1,-1,-1,-1,-1,-1,-1,-1,-1,-1,-1,-1,-1,-1,-1,-1,-1,-1,-1,-1,-1,-1,-1,-1,-1,-1,-1,-1,-1,-1,-1,-1,-1,-1,-1,-1,-1,-1,-1,-1,-1,-1],"loss_changes":[2.3067857E4,1.0491605E4,5.9538574E2,2.0187837E3,1.526707E3,5.455713E2,7.222976E1,3.1662292E2,6.298755E2,4.322539E2,9.355049E1,4.999112E1,2.3785156E2,1.7975742E1,3.571763E1,1.1152669E2,1.852649E2,7.753412E1,2.7966544E2,3.8554688E1,2.1819531E2,2.116507E1,4.5447136E1,1.1212018E2,4.0777527E1,1.3269313E2,2.0810352E2,0E0,7.221939E0,0E0,3.9982452E0,0E0,1.0530922E1,6.9633545E1,3.232185E2,2.876892E0,4.1868866E1,2.349327E1,1.3035306E2,1.4290405E1,1.0574219E1,1.4178137E2,1.2794629E2,6.0427773E1,1.5981598E1,9.755569E1,1.7762852E1,1.7511452E1,3.2017303E1,2.0836067E1,2.3285248E1,1.0911453E1,4.958905E1,1.6303125E2,1.6453522E1,5.340831E0,1.5176377E0,0E0,4.656845E0,0E0,0E0,0E0,0E0,0E0,0E0,0E0,0E0,0E0,0E0,0E0,0E0,0E0,0E0,0E0,0E0,0E0,0E0,0E0,0E0,0E0,0E0,0E0,0E0,0E0,0E0,0E0,0E0,0E0,0E0,0E0,0E0,0E0,0E0,0E0,0E0,0E0,0E0,0E0,0E0,0E0,0E0,0E0,0E0,0E0,0E0,0E0,0E0,0E0,0E0,0E0,0E0],"parents":[2147483647,0,0,1,1,2,2,3,3,4,4,5,5,6,6,7,7,8,8,9,9,10,10,11,11,12,12,13,13,14,14,15,15,16,16,17,17,18,18,19,19,20,20,21,21,22,22,23,23,24,24,25,25,26,26,28,28,30,30,32,32,33,33,34,34,35,35,36,36,37,37,38,38,39,39,40,40,41,41,42,42,43,43,44,44,45,45,46,46,47,47,48,48,49,49,50,50,51,51,52,52,53,53,54,54,55,55,56,56,58,58],"right_children":[2,4,6,8,10,12,14,16,18,20,22,24,26,28,30,32,34,36,38,40,42,44,46,48,50,52,54,-1,56,-1,58,-1,60,62,64,66,68,70,72,74,76,78,80,82,84,86,88,90,92,94,96,98,100,102,104,106,108,-1,110,-1,-1,-1,-1,-1,-1,-1,-1,-1,-1,-1,-1,-1,-1,-1,-1,-1,-1,-1,-1,-1,-1,-1,-1,-1,-1,-1,-1,-1,-1,-1,-1,-1,-1,-1,-1,-1,-1,-1,-1,-1,-1,-1,-1,-1,-1,-1,-1,-1,-1,-1,-1],"split_conditions":[1.96447E-1,-1.10689E-1,4.00963E0,8.68451E-1,7.984E-2,3.54808E-1,4.941808E0,-3.593522E0,-1.665309E0,5.77568E-1,1.24167E-1,8.72763E-1,3.70586E-1,-1.91251E-1,-1.91251E-1,-1.91251E-1,-1.91251E-1,-3.213249E0,9.2282E-1,-5.1565E-2,-4.2245E-2,9.38652E-1,8.5936E-1,4.31476E-1,2.85315E-1,-1.91251E-1,2.61648E0,3.5546875E-1,9.90665E-1,3.8966194E-1,5.77568E-1,4.0975782E-1,-5.145107E0,-4.95086E-1,2.32026E-1,-4.150757E0,9.29142E-1,-1.73061E-1,-1.87311E-1,4.98062E-1,3.7562E-2,9.14391E-1,3.7562E-2,4.98062E-1,9.98141E-1,5.24428E-1,-1.51289E0,1.82942E-1,7.37177E-1,-1.517058E0,9.86618E-1,2.425458E0,2.19443E-1,9.85225E-1,3.136123E0,7.23732E-1,9.97733E-1,-1.7578623E-1,8.98554E-1,-1.4419888E-1,-7.189218E-2,3.1951365E-1,1.2210223E-1,-6.384753E-2,1.18100785E-1,-1.5369557E-1,-1.3248305E-1,-4.1310262E-2,-9.607756E-2,5.913276E-2,-2.4940842E-3,-1.01540685E-2,-6.358853E-2,-1.3283592E-1,-1.8813025E-2,-1.7533323E-1,-1.5179716E-1,-1.0153037E-2,-1.1252684E-1,-1.532716E-1,-1.11833215E-1,-1.24148704E-1,-6.959232E-3,-8.82907E-2,-1.4443583E-2,-6.0729176E-2,1.315943E-1,4.7625087E-2,-3.2486726E-2,-6.836626E-2,7.907186E-2,2.1123286E-1,1.10796236E-1,1.2142735E-1,2.1821635E-2,5.4530296E-2,1.1459616E-1,1.0940984E-1,2.555143E-1,-1.2242387E-1,5.3128608E-2,1.3749215E-1,1.8465713E-1,9.682874E-2,6.0270548E-2,-4.5499697E-2,2.1937367E-2,-4.873521E-2,-1.3356766E-1,-6.817324E-2,-1.2050446E-1],"split_indices":[0,0,0,1,0,0,0,0,0,1,0,1,1,1,1,1,1,0,1,0,0,1,1,1,0,1,0,0,1,0,1,0,0,0,1,0,1,0,0,1,0,1,0,1,1,1,2,2,1,2,1,0,1,1,0,1,1,0,1,0,0,0,0,0,0,0,0,0,0,0,0,0,0,0,0,0,0,0,0,0,0,0,0,0,0,0,0,0,0,0,0,0,0,0,0,0,0,0,0,0,0,0,0,0,0,0,0,0,0,0,0],"split_type":[0,0,0,0,0,0,0,0,0,0,0,0,0,0,0,0,0,0,0,0,0,0,0,0,0,0,0,0,0,0,0,0,0,0,0,0,0,0,0,0,0,0,0,0,0,0,0,0,0,0,0,0,0,0,0,0,0,0,0,0,0,0,0,0,0,0,0,0,0,0,0,0,0,0,0,0,0,0,0,0,0,0,0,0,0,0,0,0,0,0,0,0,0,0,0,0,0,0,0,0,0,0,0,0,0,0,0,0,0,0,0],"sum_hessian":[2.4714258E5,1.9105345E5,5.608913E4,5.6271688E4,1.3478177E5,5.4151383E4,1.9377482E3,1.4920862E4,4.1350824E4,1.2301655E5,1.1765223E4,8.789263E3,4.5362117E4,1.02386554E3,9.138826E2,8.874351E2,1.4033428E4,8.62593E3,3.2724895E4,6.3502133E4,5.9514414E4,5.7600405E3,6.0051816E3,1.6704169E3,7.118846E3,1.2405997E3,4.412152E4,1.2314415E1,1.01155115E3,1.19086275E1,9.01974E2,4.038355E1,8.470516E2,7.535062E2,1.3279921E4,2.482017E3,6.1439126E3,5.787827E3,2.6937068E4,1.3998469E3,6.2102285E4,1.0706696E4,4.8807715E4,1.8348333E3,3.9252073E3,9.536189E2,5.051563E3,4.0842398E2,1.2619928E3,4.3849404E3,2.733906E3,5.1092935E2,7.296704E2,3.9670277E4,4.4512397E3,9.127831E2,9.8768036E1,8.6316635E1,8.156574E2,2.6588782E2,5.8116376E2,5.1787213E2,2.3563406E2,9.454859E2,1.2334436E4,1.2490544E3,1.2329626E3,1.7647592E3,4.3791533E3,5.1639233E3,6.2390375E2,2.1878988E4,5.05808E3,1.2923402E3,1.0750677E2,6.0276363E4,1.8259232E3,1.4010428E3,9.305653E3,4.0764457E4,8.0432593E3,5.770718E2,1.2577615E3,3.6403928E3,2.848145E2,4.3917584E2,5.1444305E2,2.6189453E2,4.7896685E3,3.152667E2,9.315728E1,4.4210733E2,8.198855E2,1.9702036E2,4.18792E3,1.894295E3,8.396109E2,4.5992902E2,5.1000336E1,5.3140643E2,1.9826393E2,3.1298533E4,8.371746E3,2.27979E3,2.1714497E3,1.2100312E2,7.9177997E2,7.2922195E1,2.5845842E1,2.1139145E2,6.042659E2],"tree_param":{"num_deleted":"0","num_feature":"3","num_nodes":"111","size_leaf_vector":"1"}},{"base_weights":[-1.4979798E-1,2.9664323E-1,-2.9976186E-1,3.4356937E-1,6.8278626E-2,-4.647556E-1,2.1857094E-2,1.8075551E-1,4.001767E-1,-5.4036774E-2,1.5059978E-1,-1.9586293E-1,-5.0462645E-1,7.511399E-2,-1.4077778E-1,2.5386542E-1,-5.9565995E-2,4.4081876E-1,2.791367E-1,-2.616894E-1,-6.237009E-3,3.7088007E-1,1.1328964E-1,-9.048173E-2,-3.5495517E-1,-4.4034928E-1,-5.578181E-1,1.6425674E-1,-1.0988231E-1,-2.3357633E-1,-6.971549E-2,3.5949122E-2,2.684087E-1,-1.6664365E-2,-1.9844931E-1,-7.158446E-2,4.513892E-1,3.2903612E-1,2.281903E-1,-3.867358E-1,-9.355864E-2,2.211695E-1,-6.812477E-2,9.336881E-1,2.0394228E-1,1.7846765E-1,-2.1709028E-1,-3.7135896E-1,-3.649169E-2,-2.6089156E-1,-4.1132224E-1,-3.8333294E-1,-5.0824755E-1,-5.60709E-1,-2.970084E-1,-2.0220404E-2,2.0257927E-1,-2.9094738E-1,-2.9369337E-2,-1.3456345E-1,-3.6023912E-1,-3.7511025E-2,-1.2653984E-1,2.3821767E-2,-2.7344812E-2,8.983453E-2,5.3507317E-2,1.2718768E-2,-2.7088711E-2,-2.5617104E-2,-7.623726E-2,-1.1861453E-1,1.4386046E-2,9.575346E-2,1.4312267E-1,1.0450411E-1,5.9070352E-2,7.2133705E-2,2.6022505E-2,-1.3964413E-1,-4.1849717E-2,2.1453366E-2,-1.2995726E-1,6.351071E-3,1.06657535E-1,-9.1692224E-2,-1.3577972E-2,2.9588082E-1,6.766257E-2,8.654405E-2,-1.6190508E-1,3.461153E-2,7.2828844E-2,-1.0446437E-1,-2.0838302E-2,3.8378842E-2,-1.2920313E-1,2.2230864E-2,-3.846673E-2,-6.529291E-2,-1.0291652E-1,-1.278114E-1,-9.5358245E-2,-1.2707599E-1,-5.4011058E-2,-1.5575594E-1,-1.328346E-1,-1.6883464E-1,-1.4552388E-1,-1.7003328E-1,2.4701262E-1,8.231347E-3,-7.685684E-2,1.6274102E-1,5.5299077E-2,-1.0277316E-1,-6.867876E-2,7.4195983E-3,-4.3106508E-2,1.6231681E-1,-4.7585078E-2,-1.2116725E-1,-6.713894E-2,-4.3527973E-3,-2.8670661E-2,-6.6370904E-2,-3.1633805E-2],"categories":[],"categories_nodes":[],"categories_segments":[],"categories_sizes":[],"default_left":[0,0,0,0,0,0,0,0,0,0,0,0,0,0,0,0,0,0,0,0,0,0,0,0,0,0,0,0,0,0,0,0,0,0,0,0,0,0,0,0,0,0,0,0,0,0,0,0,0,0,0,0,0,0,0,0,0,0,0,0,0,0,0,0,0,0,0,0,0,0,0,0,0,0,0,0,0,0,0,0,0,0,0,0,0,0,0,0,0,0,0,0,0,0,0,0,0,0,0,0,0,0,0,0,0,0,0,0,0,0,0,0,0,0,0,0,0,0,0,0,0,0,0,0,0,0,0],"id":10,"left_children":[1,3,5,7,9,11,13,15,17,19,21,23,25,27,29,31,33,35,37,39,41,43,45,47,49,51,53,55,57,59,61,63,65,67,69,71,73,75,77,79,81,83,85,87,89,91,93,95,97,99,101,103,105,107,109,111,113,115,117,119,121,123,125,-1,-1,-1,-1,-1,-1,-1,-1,-1,-1,-1,-1,-1,-1,-1,-1,-1,-1,-1,-1,-1,-1,-1,-1,-1,-1,-1,-1,-1,-1,-1,-1,-1,-1,-1,-1,-1,-1,-1,-1,-1,-1,-1,-1,-1,-1,-1,-1,-1,-1,-1,-1,-1,-1,-1,-1,-1,-1,-1,-1,-1,-1,-1,-1],"loss_changes":[1.5181806E4,6.1100684E2,9.007487E3,4.358589E2,9.788739E1,1.2026836E3,4.9852167E2,2.144433E2,1.7252441E2,3.8819767E1,4.771289E1,2.4287665E2,3.3379688E2,7.150384E2,9.361395E1,2.9647095E1,1.6963266E1,1.4233105E2,2.2359192E1,1.5349884E1,4.4774334E1,7.884118E1,1.0706792E2,1.3217538E2,3.050061E1,1.7109375E2,4.013867E1,2.0685834E2,2.0553485E2,7.716809E1,1.4712601E1,3.2471998E0,2.4466187E1,9.4692135E0,4.207821E0,2.0605976E1,8.7265625E1,1.1301422E1,7.5543213E0,8.099579E0,1.7604486E1,1.828083E1,1.3567191E1,6.932266E0,4.101923E1,1.6815308E1,1.5838371E1,4.1675934E1,7.4195724E1,7.6215057E0,4.8268433E0,1.9676855E2,1.4230469E1,8.015625E0,1.7823846E2,5.661513E1,1.5017145E2,1.3817108E1,6.0372314E1,5.6270054E1,1.5995026E1,6.8554463E0,5.7868614E0,0E0,0E0,0E0,0E0,0E0,0E0,0E0,0E0,0E0,0E0,0E0,0E0,0E0,0E0,0E0,0E0,0E0,0E0,0E0,0E0,0E0,0E0,0E0,0E0,0E0,0E0,0E0,0E0,0E0,0E0,0E0,0E0,0E0,0E0,0E0,0E0,0E0,0E0,0E0,0E0,0E0,0E0,0E0,0E0,0E0,0E0,0E0,0E0,0E0,0E0,0E0,0E0,0E0,0E0,0E0,0E0,0E0,0E0,0E0,0E0,0E0,0E0,0E0,0E0],"parents":[2147483647,0,0,1,1,2,2,3,3,4,4,5,5,6,6,7,7,8,8,9,9,10,10,11,11,12,12,13,13,14,14,15,15,16,16,17,17,18,18,19,19,20,20,21,21,22,22,23,23,24,24,25,25,26,26,27,27,28,28,29,29,30,30,31,31,32,32,33,33,34,34,35,35,36,36,37,37,38,38,39,39,40,40,41,41,42,42,43,43,44,44,45,45,46,46,47,47,48,48,49,49,50,50,51,51,52,52,53,53,54,54,55,55,56,56,57,57,58,58,59,59,60,60,61,61,62,62],"right_children":[2,4,6,8,10,12,14,16,18,20,22,24,26,28,30,32,34,36,38,40,42,44,46,48,50,52,54,56,58,60,62,64,66,68,70,72,74,76,78,80,82,84,86,88,90,92,94,96,98,100,102,104,106,108,110,112,114,116,118,120,122,124,126,-1,-1,-1,-1,-1,-1,-1,-1,-1,-1,-1,-1,-1,-1,-1,-1,-1,-1,-1,-1,-1,-1,-1,-1,-1,-1,-1,-1,-1,-1,-1,-1,-1,-1,-1,-1,-1,-1,-1,-1,-1,-1,-1,-1,-1,-1,-1,-1,-1,-1,-1,-1,-1,-1,-1,-1,-1,-1,-1,-1,-1,-1,-1,-1],"split_conditions":[-2.01942E-1,-9.75727E-1,1.06871E-1,-1.375464E0,-1.333085E0,-5.8931E-2,1.494714E0,-4.00981E-1,-5.30543E-1,4.37427E-1,1.23104E-1,9.78466E-1,-7.55163E-1,9.75827E-1,9.27622E-1,-3.593522E0,9.96485E-1,-5.145107E0,-3.45596E-1,-1.995736E0,6.41069E-1,-4.2825E-2,-5.72717E-1,5.77568E-1,-1.28191E-1,9.80438E-1,1.82942E-1,2.1202E-1,2.4594E-1,2.425458E0,2.61648E0,9.9459E-1,9.95387E-1,-2.74776E-1,-3.20061E-1,9.01516E-1,8.86876E-1,9.73971E-1,9.77412E-1,3.61933E-1,1.76644E-1,5.54332E-1,-4.150757E0,-2.36467E-1,1.387118E0,7.45988E-1,4.23369E-1,-1.14241E-1,9.38652E-1,9.94326E-1,-1.385588E0,4.8924E-2,5.6094E-2,4.5824E-2,-9.83324E-1,-7.55163E-1,1.76644E-1,1.68417E-1,9.93459E-1,-1.91251E-1,-8.09139E-1,9.84634E-1,9.46294E-1,2.3821767E-2,-2.7344812E-2,8.983453E-2,5.3507317E-2,1.2718768E-2,-2.7088711E-2,-2.5617104E-2,-7.623726E-2,-1.1861453E-1,1.4386046E-2,9.575346E-2,1.4312267E-1,1.0450411E-1,5.9070352E-2,7.2133705E-2,2.6022505E-2,-1.3964413E-1,-4.1849717E-2,2.1453366E-2,-1.2995726E-1,6.351071E-3,1.06657535E-1,-9.1692224E-2,-1.3577972E-2,2.9588082E-1,6.766257E-2,8.654405E-2,-1.6190508E-1,3.461153E-2,7.2828844E-2,-1.0446437E-1,-2.0838302E-2,3.8378842E-2,-1.2920313E-1,2.2230864E-2,-3.846673E-2,-6.529291E-2,-1.0291652E-1,-1.278114E-1,-9.5358245E-2,-1.2707599E-1,-5.4011058E-2,-1.5575594E-1,-1.328346E-1,-1.6883464E-1,-1.4552388E-1,-1.7003328E-1,2.4701262E-1,8.231347E-3,-7.685684E-2,1.6274102E-1,5.5299077E-2,-1.0277316E-1,-6.867876E-2,7.4195983E-3,-4.3106508E-2,1.6231681E-1,-4.7585078E-2,-1.2116725E-1,-6.713894E-2,-4.3527973E-3,-2.8670661E-2,-6.6370904E-2,-3.1633805E-2],"split_indices":[0,2,0,2,0,0,0,0,0,1,1,1,2,1,1,0,1,0,0,0,1,2,2,1,0,1,2,0,0,0,0,1,1,0,0,1,1,1,1,1,1,1,0,0,2,1,1,1,1,1,2,0,0,0,1,2,1,0,1,1,2,1,1,0,0,0,0,0,0,0,0,0,0,0,0,0,0,0,0,0,0,0,0,0,0,0,0,0,0,0,0,0,0,0,0,0,0,0,0,0,0,0,0,0,0,0,0,0,0,0,0,0,0,0,0,0,0,0,0,0,0,0,0,0,0,0,0],"split_type":[0,0,0,0,0,0,0,0,0,0,0,0,0,0,0,0,0,0,0,0,0,0,0,0,0,0,0,0,0,0,0,0,0,0,0,0,0,0,0,0,0,0,0,0,0,0,0,0,0,0,0,0,0,0,0,0,0,0,0,0,0,0,0,0,0,0,0,0,0,0,0,0,0,0,0,0,0,0,0,0,0,0,0,0,0,0,0,0,0,0,0,0,0,0,0,0,0,0,0,0,0,0,0,0,0,0,0,0,0,0,0,0,0,0,0,0,0,0,0,0,0,0,0,0,0,0,0],"sum_hessian":[2.2676078E5,5.701793E4,1.6974284E5,4.729822E4,9.719711E3,1.12188555E5,5.7554293E4,1.2203302E4,3.5094914E4,3.9101814E3,5.8095293E3,1.4487757E4,9.77008E4,4.3357016E4,1.4197278E4,9.356759E3,2.8465427E3,2.6271121E4,8.823795E3,7.308284E2,3.179353E3,8.40174E2,4.9693555E3,8.715957E3,5.7718003E3,4.4244574E4,5.3456227E4,2.9258541E4,1.4098476E4,6.156008E3,8.0412705E3,5.8560016E2,8.771158E3,2.1756084E3,6.709344E2,5.308809E2,2.574024E4,4.4549443E3,4.368851E3,4.1836865E2,3.1245978E2,6.795978E2,2.4997551E3,1.9114879E2,6.490252E2,4.1509146E3,8.1844086E2,1.4043102E3,7.311647E3,2.1648296E3,3.6069705E3,2.4053086E4,2.0191486E4,5.2869055E4,5.8717114E2,5.032681E3,2.422586E4,4.338666E3,9.75981E3,3.45628E3,2.699728E3,5.133554E3,2.9077158E3,4.3667133E2,1.4892883E2,6.521078E3,2.2500803E3,1.2074932E3,9.681152E2,2.2221533E2,4.4871902E2,1.4252097E2,3.8835992E2,4.1895474E3,2.1550691E4,3.8854653E3,5.694788E2,4.0198625E3,3.4898837E2,3.166373E2,1.01731346E2,2.1079669E2,1.0166309E2,2.7355154E2,4.0604623E2,2.1842542E2,2.2813298E3,1.7757104E2,1.3577741E1,5.833231E2,6.5702065E1,2.0964065E3,2.054508E3,4.327308E2,3.8571008E2,1.4900008E2,1.25531E3,3.315059E3,3.9965876E3,1.420675E3,7.441546E2,3.1132263E3,4.9374414E2,2.007671E4,3.9763743E3,1.7294725E4,2.8967612E3,5.1452258E4,1.4167999E3,4.736246E2,1.13546555E2,4.187769E3,8.449122E2,1.2329655E3,2.2992895E4,2.36516E3,1.9735061E3,6.6252173E3,3.1345923E3,1.1808163E2,3.3381982E3,2.0438763E3,6.5585156E2,3.6777368E3,1.4558176E3,5.279777E2,2.3797383E3],"tree_param":{"num_deleted":"0","num_feature":"3","num_nodes":"127","size_leaf_vector":"1"}},{"base_weights":[-1.4848678E-1,-2.5378034E-1,3.1032404E-1,2.7188644E-1,-4.349504E-1,1.9424087E-1,5.36225E-1,4.5025226E-1,1.3874505E-1,-4.8200226E-1,-1.0849707E-1,1.0950558E-1,2.7087456E-1,4.6052608E-1,6.917932E-1,6.730401E-1,3.8395447E-1,2.0335507E-1,1.9777142E-2,-2.105927E-1,-5.158046E-1,-2.0692746E-1,-3.902025E-2,-1.5648833E-1,1.1558105E-1,-4.402596E-1,2.7567983E-1,-4.3318143E-1,4.652028E-1,-1.6257057E-1,6.965524E-1,8.1528705E-1,5.976403E-1,5.4142207E-1,3.2822043E-1,3.4112176E-1,1.2326175E-1,-1.7022917E-1,2.5700478E-2,-1.4675E-1,-3.1501338E-1,-5.5968213E-1,-4.691601E-1,-3.092637E-1,-1.3025327E-1,1.05908895E-2,-1.3322611E-1,1.5189439E-1,4.1995868E-2,-1.5889838E-1,-3.4722987E-1,1.0657837E0,2.7048483E-1,-1.6639629E-1,-4.9352744E-1,5.085616E-1,3.688551E-1,6.403397E-1,8.0214137E-1,2.753283E-1,2.1916297E-1,-1.7012882E-1,1.813612E-1,1.9122477E-1,1.4125623E-1,1.2982757E-1,6.9170356E-2,8.425531E-2,1.1680772E-1,-1.487583E-1,3.9311025E-2,2.4858225E-2,-1.4386495E-3,-1.17471E-1,-3.633778E-2,-7.105325E-2,-1.1995926E-1,-1.6858844E-1,-1.3786094E-1,-1.458085E-1,-1.0447653E-1,-1.08896546E-1,-8.268289E-2,-1.02197625E-1,-3.1553455E-2,-1.5581156E-1,5.791609E-3,-6.280846E-2,-2.4352757E-2,5.897732E-2,2.4165545E-2,-1.0673703E-3,2.6010009E-2,-6.075015E-2,-1.2161586E-1,3.8518906E-1,2.7887028E-1,6.699891E-2,9.450314E-2,-1.2728186E-1,-9.184602E-3,-9.985355E-2,-1.5878165E-1,2.157375E-1,1.4739782E-1,1.0025922E-1,1.605322E-1,3.1628388E-1,1.9033521E-1,2.8617015E-1,2.3431845E-1],"categories":[],"categories_nodes":[],"categories_segments":[],"categories_sizes":[],"default_left":[0,0,0,0,0,0,0,0,0,0,0,0,0,0,0,0,0,0,0,0,0,0,0,0,0,0,0,0,0,0,0,0,0,0,0,0,0,0,0,0,0,0,0,0,0,0,0,0,0,0,0,0,0,0,0,0,0,0,0,0,0,0,0,0,0,0,0,0,0,0,0,0,0,0,0,0,0,0,0,0,0,0,0,0,0,0,0,0,0,0,0,0,0,0,0,0,0,0,0,0,0,0,0,0,0,0,0,0,0,0,0],"id":11,"left_children":[1,3,5,7,9,11,13,15,17,19,21,23,25,27,29,31,33,35,37,39,41,43,45,-1,47,49,51,53,55,-1,57,59,61,63,65,67,69,-1,71,73,75,77,79,81,83,85,87,89,91,-1,93,95,97,99,101,103,105,107,109,-1,-1,-1,-1,-1,-1,-1,-1,-1,-1,-1,-1,-1,-1,-1,-1,-1,-1,-1,-1,-1,-1,-1,-1,-1,-1,-1,-1,-1,-1,-1,-1,-1,-1,-1,-1,-1,-1,-1,-1,-1,-1,-1,-1,-1,-1,-1,-1,-1,-1,-1,-1],"loss_changes":[1.0958058E4,1.7569941E4,1.1101675E3,1.1229075E3,2.107414E3,1.8158984E2,1.6891943E2,2.982583E2,2.0812842E2,1.1000566E3,1.18199326E2,5.0997375E1,5.030591E1,4.0618896E1,2.7984375E1,4.921118E1,1.3653882E2,1.9358118E2,3.31657E1,8.850293E1,2.1798828E2,5.6078827E1,4.736508E1,0E0,3.515419E1,6.390896E-1,5.9589478E1,7.366514E-1,4.0000977E1,0E0,2.729004E1,1.324585E1,2.4700806E1,2.7275513E1,1.1738013E2,1.8644348E1,5.3487213E1,0E0,1.6450245E1,5.167479E1,3.332675E1,1.2283203E1,1.05259766E2,5.4374695E0,2.1544891E1,3.0672207E1,1.3837032E1,2.80775E1,8.857254E0,0E0,3.5050964E-1,1.6283646E0,3.0361572E1,3.68332E-1,5.912876E-2,2.3714844E1,1.7045471E1,6.795044E0,4.4484863E0,0E0,0E0,0E0,0E0,0E0,0E0,0E0,0E0,0E0,0E0,0E0,0E0,0E0,0E0,0E0,0E0,0E0,0E0,0E0,0E0,0E0,0E0,0E0,0E0,0E0,0E0,0E0,0E0,0E0,0E0,0E0,0E0,0E0,0E0,0E0,0E0,0E0,0E0,0E0,0E0,0E0,0E0,0E0,0E0,0E0,0E0,0E0,0E0,0E0,0E0,0E0,0E0],"parents":[2147483647,0,0,1,1,2,2,3,3,4,4,5,5,6,6,7,7,8,8,9,9,10,10,11,11,12,12,13,13,14,14,15,15,16,16,17,17,18,18,19,19,20,20,21,21,22,22,24,24,25,25,26,26,27,27,28,28,30,30,31,31,32,32,33,33,34,34,35,35,36,36,38,38,39,39,40,40,41,41,42,42,43,43,44,44,45,45,46,46,47,47,48,48,50,50,51,51,52,52,53,53,54,54,55,55,56,56,57,57,58,58],"right_children":[2,4,6,8,10,12,14,16,18,20,22,24,26,28,30,32,34,36,38,40,42,44,46,-1,48,50,52,54,56,-1,58,60,62,64,66,68,70,-1,72,74,76,78,80,82,84,86,88,90,92,-1,94,96,98,100,102,104,106,108,110,-1,-1,-1,-1,-1,-1,-1,-1,-1,-1,-1,-1,-1,-1,-1,-1,-1,-1,-1,-1,-1,-1,-1,-1,-1,-1,-1,-1,-1,-1,-1,-1,-1,-1,-1,-1,-1,-1,-1,-1,-1,-1,-1,-1,-1,-1,-1,-1,-1,-1,-1,-1],"split_conditions":[5.27044E-1,-3.45596E-1,1.986049E0,-1.48908E0,1.44357E-1,1.034317E0,3.498364E0,-3.593522E0,-6.44081E-1,-1.10689E-1,2.65427E-1,-1.91251E-1,-1.91251E-1,-1.91251E-1,-1.91251E-1,-5.145107E0,-1.339257E0,-1.315392E0,-1.91251E-1,9.78466E-1,6.85353E-1,-1.344969E0,9.75827E-1,-1.5648833E-1,9.7331E-1,1.416853E0,8.514E-3,2.11673E0,9.64522E-1,-1.6257057E-1,4.941808E0,9.24662E-1,-1.91251E-1,-1.43093E0,8.92939E-1,9.84634E-1,-1.91251E-1,-1.7022917E-1,-5.30543E-1,4.53342E-1,-1.87311E-1,6.0082E-2,7.4284E-2,1.8172E-1,4.70588E-1,-1.91251E-1,3.54808E-1,-1.090619E0,7.48658E-1,-1.5889838E-1,1.576339E0,-1.14241E-1,1.416853E0,-9.83324E-1,2.260351E0,5.98236E-1,9.95126E-1,2.366E-1,6.41069E-1,2.753283E-1,2.1916297E-1,-1.7012882E-1,1.813612E-1,1.9122477E-1,1.4125623E-1,1.2982757E-1,6.9170356E-2,8.425531E-2,1.1680772E-1,-1.487583E-1,3.9311025E-2,2.4858225E-2,-1.4386495E-3,-1.17471E-1,-3.633778E-2,-7.105325E-2,-1.1995926E-1,-1.6858844E-1,-1.3786094E-1,-1.458085E-1,-1.0447653E-1,-1.08896546E-1,-8.268289E-2,-1.02197625E-1,-3.1553455E-2,-1.5581156E-1,5.791609E-3,-6.280846E-2,-2.4352757E-2,5.897732E-2,2.4165545E-2,-1.0673703E-3,2.6010009E-2,-6.075015E-2,-1.2161586E-1,3.8518906E-1,2.7887028E-1,6.699891E-2,9.450314E-2,-1.2728186E-1,-9.184602E-3,-9.985355E-2,-1.5878165E-1,2.157375E-1,1.4739782E-1,1.0025922E-1,1.605322E-1,3.1628388E-1,1.9033521E-1,2.8617015E-1,2.3431845E-1],"split_indices":[0,0,0,0,0,0,0,0,0,0,0,1,1,1,1,0,2,2,1,1,1,2,1,0,1,0,1,0,1,0,0,1,1,2,1,1,1,0,0,1,0,0,0,0,1,1,0,2,0,0,0,1,0,1,0,1,1,1,1,0,0,0,0,0,0,0,0,0,0,0,0,0,0,0,0,0,0,0,0,0,0,0,0,0,0,0,0,0,0,0,0,0,0,0,0,0,0,0,0,0,0,0,0,0,0,0,0,0,0,0,0],"split_type":[0,0,0,0,0,0,0,0,0,0,0,0,0,0,0,0,0,0,0,0,0,0,0,0,0,0,0,0,0,0,0,0,0,0,0,0,0,0,0,0,0,0,0,0,0,0,0,0,0,0,0,0,0,0,0,0,0,0,0,0,0,0,0,0,0,0,0,0,0,0,0,0,0,0,0,0,0,0,0,0,0,0,0,0,0,0,0,0,0,0,0,0,0,0,0,0,0,0,0,0,0,0,0,0,0,0,0,0,0,0,0],"sum_hessian":[2.2682611E5,1.8448798E5,4.233813E4,4.728618E4,1.3720181E5,2.7968096E4,1.4370033E4,2.020958E4,2.7076598E4,1.1991756E5,1.7284246E4,1.3283128E4,1.4684967E4,9.669062E3,4.7009717E3,4.6326895E3,1.5576891E4,1.7546564E4,9.530034E3,1.3281713E4,1.0663585E5,7.1510747E3,1.0133172E4,1.25839E2,1.3157289E4,9.795437E1,1.4587013E4,4.9857273E1,9.619204E3,1.7631302E1,4.6833403E3,1.6015121E3,3.0311772E3,4.0697488E3,1.1507142E4,6.449561E3,1.1097003E4,9.422554E1,9.435809E3,8.243841E3,5.037872E3,5.4941996E4,5.169385E4,3.0616667E3,4.0894082E3,6.6382124E3,3.49496E3,8.809065E3,4.3482236E3,4.755781E1,5.0396557E1,9.395068E1,1.44930625E4,9.890312E0,3.996696E1,6.6308735E3,2.9883306E3,3.0608765E3,1.6224639E3,7.204727E2,8.810394E2,1.7365355E1,3.013812E3,1.720846E3,2.3489028E3,5.555977E3,5.9511646E3,2.8701875E3,3.5793738E3,1.3685023E2,1.0960152E4,3.2821602E3,6.1536484E3,7.797353E2,7.464106E3,2.6241511E3,2.4137212E3,5.3714816E4,1.2271813E3,4.5362082E4,6.331769E3,1.1754362E3,1.8862305E3,4.341194E2,3.6552888E3,1.0644196E2,6.53177E3,1.4179136E3,2.0770464E3,5.4148584E3,3.394207E3,2.1541023E3,2.1941213E3,1.5730701E1,3.4665855E1,3.2872417E1,6.107827E1,7.0416143E3,7.4514478E3,2.6785316E0,7.2117805E0,9.149438E0,3.0817524E1,4.9861926E2,6.1322544E3,2.4753237E3,5.1300684E2,4.0438168E1,3.0204382E3,1.9248294E2,1.429981E3],"tree_param":{"num_deleted":"0","num_feature":"3","num_nodes":"111","size_leaf_vector":"1"}},{"base_weights":[2.0713182E-1,-5.06653E-1,8.6218095E-1,-2.880732E-2,-5.694179E-1,-3.9511245E-1,8.937637E-1,-5.425209E-1,1.9678031E-1,-5.719085E-1,-4.5573336E-1,-5.2122813E-1,5.675519E-3,9.229034E-1,-3.58425E-1,-5.643255E-1,-3.1698364E-1,7.7042514E-1,-5.0960076E-1,-5.2883345E-1,-1.7166223E-1,-3.7156436E-1,-1.7027622E-1,-5.5716264E-1,-3.798534E-1,1.7063016E-1,-3.2338578E-1,9.3113434E-1,-1.7205462E-1,-2.3397127E-2,-5.1742774E-1,-1.7179106E-1,-5.0311464E-1,-8.2526356E-2,-4.1125205E-1,1.6913982E-1,8.3771366E-1,-1.4324518E-1,-5.534571E-1,-4.9949992E-1,-1.7080705E-1,-5.2364475E-1,1.963813E-2,-1.7067973E-1,-5.1640195E-1,-2.2494027E-1,-4.9868885E-1,3.030925E-1,-1.7081778E-1,-4.039801E-1,-1.4332631E-1,6.836108E-1,9.373982E-1,1.4446843E-1,-3.1837657E-1,-3.5103375E-1,-5.484368E-1,-1.10917E-1,-1.5780932E-1,-7.7359796E-2,3.0704338E-2,-1.4550164E-1,-1.0822325E-1,-1.7094998E-2,9.639976E-2,2.655645E-1,1.647326E-1,-6.618489E-2,1.8052844E-2,-1.3855839E-1,-1.7275497E-1,-1.7116511E-1,-1.2049428E-1,-1.6635573E-1,-9.721016E-2,9.324283E-2,-3.7557445E-2,-1.7129815E-1,-1.2922709E-1,-1.0111744E-1,8.893555E-2,-1.6111304E-1,-1.1828145E-1,1.1470569E-1,-5.8900705E-3,-9.6093565E-2,-1.5545768E-1,-1.2559013E-1,-2.6899368E-2,6.6222355E-2,2.3431987E-1,2.8291672E-1,2.1909685E-1,1.0074664E-1,-1.736771E-1,-7.369195E-2,-1.4200442E-1,-6.741503E-2,-1.602069E-1,-1.540279E-1,-1.7202212E-1],"categories":[],"categories_nodes":[],"categories_segments":[],"categories_sizes":[],"default_left":[0,0,0,0,0,0,0,0,0,0,0,0,0,0,0,0,0,0,0,0,0,0,0,0,0,0,0,0,0,0,0,0,0,0,0,0,0,0,0,0,0,0,0,0,0,0,0,0,0,0,0,0,0,0,0,0,0,0,0,0,0,0,0,0,0,0,0,0,0,0,0,0,0,0,0,0,0,0,0,0,0,0,0,0,0,0,0,0,0,0,0,0,0,0,0,0,0,0,0,0,0],"id":12,"left_children":[1,3,5,7,9,11,13,15,17,19,21,23,25,27,29,31,33,35,37,39,-1,41,-1,43,45,47,49,51,-1,53,55,-1,57,59,61,63,65,67,69,71,-1,73,75,-1,77,79,81,83,-1,85,87,89,91,93,95,97,99,-1,-1,-1,-1,-1,-1,-1,-1,-1,-1,-1,-1,-1,-1,-1,-1,-1,-1,-1,-1,-1,-1,-1,-1,-1,-1,-1,-1,-1,-1,-1,-1,-1,-1,-1,-1,-1,-1,-1,-1,-1,-1,-1,-1],"loss_changes":[1.23965266E5,3.8052676E3,5.490203E3,1.7072972E3,3.1492188E1,1.7127484E2,4.921367E3,2.1928345E1,4.148582E3,1.109375E0,2.2470459E1,1.2882324E1,4.413207E1,1.6239062E3,1.6341107E2,1.7963867E0,8.775314E0,2.2844409E2,7.364209E1,6.303253E-1,0E0,8.1969604E1,0E0,6.911011E-1,9.5618515E0,5.3257156E1,3.8818321E0,2.0258594E2,0E0,4.898921E1,1.0541687E1,0E0,1.3282013E0,3.7720306E0,8.8306427E-1,1.962994E1,6.9167725E1,7.755212E0,8.138306E0,2.9309998E0,0E0,5.933899E0,1.6341661E1,0E0,1.9552917E0,1.3541828E1,9.759445E-1,1.1773312E1,0E0,1.6208973E0,1.2254966E0,1.4593127E2,1.4907031E2,8.748751E1,3.9280777E0,7.498043E0,1.2370605E0,0E0,0E0,0E0,0E0,0E0,0E0,0E0,0E0,0E0,0E0,0E0,0E0,0E0,0E0,0E0,0E0,0E0,0E0,0E0,0E0,0E0,0E0,0E0,0E0,0E0,0E0,0E0,0E0,0E0,0E0,0E0,0E0,0E0,0E0,0E0,0E0,0E0,0E0,0E0,0E0,0E0,0E0,0E0,0E0],"parents":[2147483647,0,0,1,1,2,2,3,3,4,4,5,5,6,6,7,7,8,8,9,9,10,10,11,11,12,12,13,13,14,14,15,15,16,16,17,17,18,18,19,19,21,21,23,23,24,24,25,25,26,26,27,27,29,29,30,30,32,32,33,33,34,34,35,35,36,36,37,37,38,38,39,39,41,41,42,42,44,44,45,45,46,46,47,47,49,49,50,50,51,51,52,52,53,53,54,54,55,55,56,56],"right_children":[2,4,6,8,10,12,14,16,18,20,22,24,26,28,30,32,34,36,38,40,-1,42,-1,44,46,48,50,52,-1,54,56,-1,58,60,62,64,66,68,70,72,-1,74,76,-1,78,80,82,84,-1,86,88,90,92,94,96,98,100,-1,-1,-1,-1,-1,-1,-1,-1,-1,-1,-1,-1,-1,-1,-1,-1,-1,-1,-1,-1,-1,-1,-1,-1,-1,-1,-1,-1,-1,-1,-1,-1,-1,-1,-1,-1,-1,-1,-1,-1,-1,-1,-1,-1],"split_conditions":[-7.55163E-1,8.41702E-1,-2.74776E-1,-1.10689E-1,-1.034048E0,-5.30543E-1,2.4594E-1,-2.36467E-1,6.0082E-2,8.64115E-1,7.4284E-2,-8.17407E-1,5.24428E-1,1.82942E-1,5.60358E-1,-4.31448E-1,7.45988E-1,-3.0583E-2,1.8172E-1,6.4342E-2,-1.7166223E-1,-1.10689E-1,-1.7027622E-1,-1.138634E0,4.0819E-1,1.82942E-1,-3.45596E-1,-6.3131E-2,-1.7205462E-1,4.48239E-1,7.48658E-1,-1.7179106E-1,-9.75727E-1,-1.6058E-1,7.95773E-1,-6.3131E-2,1.9964E-2,-8.41679E-1,4.63267E-1,-2.55164E-1,-1.7080705E-1,-2.55164E-1,8.48289E-1,-1.7067973E-1,-4.25153E-1,3.20016E-1,-6.0358E-1,4.23369E-1,-1.7081778E-1,6.30108E-1,5.54332E-1,-5.34674E-1,6.0082E-2,1.82942E-1,6.30108E-1,4.80258E-1,4.48239E-1,-1.10917E-1,-1.5780932E-1,-7.7359796E-2,3.0704338E-2,-1.4550164E-1,-1.0822325E-1,-1.7094998E-2,9.639976E-2,2.655645E-1,1.647326E-1,-6.618489E-2,1.8052844E-2,-1.3855839E-1,-1.7275497E-1,-1.7116511E-1,-1.2049428E-1,-1.6635573E-1,-9.721016E-2,9.324283E-2,-3.7557445E-2,-1.7129815E-1,-1.2922709E-1,-1.0111744E-1,8.893555E-2,-1.6111304E-1,-1.1828145E-1,1.1470569E-1,-5.8900705E-3,-9.6093565E-2,-1.5545768E-1,-1.2559013E-1,-2.6899368E-2,6.6222355E-2,2.3431987E-1,2.8291672E-1,2.1909685E-1,1.0074664E-1,-1.736771E-1,-7.369195E-2,-1.4200442E-1,-6.741503E-2,-1.602069E-1,-1.540279E-1,-1.7202212E-1],"split_indices":[2,1,0,0,2,0,0,0,0,1,0,0,1,2,0,0,1,0,0,0,0,0,0,0,1,2,0,0,0,1,0,0,2,0,1,0,0,2,0,0,0,0,1,0,2,1,0,1,0,1,1,2,0,2,1,1,1,0,0,0,0,0,0,0,0,0,0,0,0,0,0,0,0,0,0,0,0,0,0,0,0,0,0,0,0,0,0,0,0,0,0,0,0,0,0,0,0,0,0,0,0],"split_type":[0,0,0,0,0,0,0,0,0,0,0,0,0,0,0,0,0,0,0,0,0,0,0,0,0,0,0,0,0,0,0,0,0,0,0,0,0,0,0,0,0,0,0,0,0,0,0,0,0,0,0,0,0,0,0,0,0,0,0,0,0,0,0,0,0,0,0,0,0,0,0,0,0,0,0,0,0,0,0,0,0,0,0,0,0,0,0,0,0,0,0,0,0,0,0,0,0,0,0,0,0],"sum_hessian":[2.6512803E5,1.2687589E5,1.3825212E5,1.4730456E4,1.1214544E5,3.3874612E3,1.3486467E5,4.494368E3,1.0236088E4,1.0973727E5,2.4081582E3,2.5764358E3,8.110255E2,1.3179786E5,3.0668062E3,4.0967935E3,3.9757437E2,5.6487256E3,4.5873623E3,7.685154E2,1.0896876E5,1.3766013E3,1.031557E3,2.0519353E3,5.245005E2,5.4054034E2,2.7048517E2,1.3107725E5,7.206043E2,9.874146E2,2.0793914E3,3.5996704E3,4.9712335E2,1.1454992E2,2.8302448E2,5.6886884E2,5.0798564E3,4.9089706E2,4.0964653E3,4.5353955E2,3.149758E2,9.910075E2,3.8559387E2,1.5821326E3,4.6980267E2,2.2894379E2,2.955567E2,4.5897525E2,8.156509E1,1.859919E2,8.449326E1,3.2378962E3,1.2783936E5,6.296223E2,3.5779233E2,3.2857648E2,1.750815E3,7.539541E1,4.2172794E2,5.858834E1,5.596158E1,1.1154295E2,1.714815E2,2.2910194E2,3.397669E2,4.360155E3,7.197019E2,3.555713E2,1.3532578E2,8.089894E2,3.2874758E3,2.599556E2,1.9358397E2,8.5671875E2,1.3428877E2,1.2770485E2,2.57889E2,2.8345544E2,1.8634721E2,1.8871655E2,4.022723E1,2.131275E2,8.242919E1,3.683305E2,9.064474E1,1.0954627E2,7.6445625E1,1.2673178E1,7.182008E1,5.637241E2,2.674172E3,1.244361E5,3.4032617E3,4.9833667E2,1.3128563E2,2.4526218E2,1.1253014E2,1.957079E2,1.3286859E2,7.378478E2,1.01296716E3],"tree_param":{"num_deleted":"0","num_feature":"3","num_nodes":"101","size_leaf_vector":"1"}},{"base_weights":[1.6484623E-1,4.4707292E-1,-5.3176916E-1,5.7824E-1,-4.2388886E-1,7.8427845E-1,-5.5771697E-1,-3.9336443E-1,7.458724E-1,-1.0057952E-1,-5.1489335E-1,-5.264703E-1,8.4908444E-1,-1.2842312E-1,-5.633755E-1,-5.089105E-1,-6.731653E-2,7.85523E-1,3.6471024E-1,-2.7072182E-1,3.7535203E-3,-4.0565622E-1,-5.558924E-1,-1.6915885E-1,-2.248945E-1,9.131428E-1,-7.00845E-2,-5.516552E-1,2.4522897E-2,-4.617208E-1,-5.691698E-1,-5.467311E-1,-3.723593E-1,-2.6846835E-1,5.479167E-2,3.5336193E-1,8.2307136E-1,8.987022E-2,4.497558E-1,-1.8573008E-1,-3.3612624E-1,1.015021E-1,-1.5210825E-1,-5.056735E-1,-3.4148443E-1,-5.1559514E-1,-5.702189E-1,3.9063096E-2,-3.714446E-1,9.0516016E-2,9.251032E-1,2.57626E-1,-5.1664716E-1,-1.7111444E-1,-1.4416784E-1,3.5245442E-1,-5.4545885E-1,-5.6412804E-1,-4.0997842E-1,-1.737755E-1,-5.6827486E-1,-1.6748008E-1,-1.5120013E-1,-8.556155E-2,-1.3091826E-1,-9.6267335E-2,-3.9899323E-2,-6.806851E-3,7.422095E-2,1.9065721E-2,1.3597241E-1,2.0414396E-1,2.5641057E-1,8.01218E-2,-1.4628028E-2,1.6199392E-1,8.770312E-2,-6.5732E-2,-3.6006555E-2,-1.1482512E-1,-6.8137445E-2,2.1209192E-2,8.305673E-2,-8.07012E-2,-2.8138936E-2,-1.3617587E-1,-1.5736936E-1,-8.330264E-2,-1.22615285E-1,-1.3407438E-1,-1.6067486E-1,-1.676667E-1,-1.7205182E-1,-1.3793363E-1,-4.917965E-2,2.8186914E-1,2.0249255E-1,9.608606E-2,3.4632012E-2,-5.2746367E-2,-1.6941436E-1,-9.08657E-3,1.3594145E-1,-1.2718661E-1,-1.7123006E-1,-1.7213473E-1,-1.465493E-1,-7.302213E-2,-1.642031E-1,-1.701339E-1,-1.7339398E-1],"categories":[],"categories_nodes":[],"categories_segments":[],"categories_sizes":[],"default_left":[0,0,0,0,0,0,0,0,0,0,0,0,0,0,0,0,0,0,0,0,0,0,0,0,0,0,0,0,0,0,0,0,0,0,0,0,0,0,0,0,0,0,0,0,0,0,0,0,0,0,0,0,0,0,0,0,0,0,0,0,0,0,0,0,0,0,0,0,0,0,0,0,0,0,0,0,0,0,0,0,0,0,0,0,0,0,0,0,0,0,0,0,0,0,0,0,0,0,0,0,0,0,0,0,0,0,0,0,0,0,0],"id":13,"left_children":[1,3,5,7,9,11,13,15,17,19,21,23,25,27,29,31,33,35,37,39,41,43,45,-1,47,49,51,53,55,57,59,61,63,65,67,69,71,73,75,77,79,81,83,85,87,89,91,-1,93,-1,95,97,99,-1,-1,101,103,105,107,-1,109,-1,-1,-1,-1,-1,-1,-1,-1,-1,-1,-1,-1,-1,-1,-1,-1,-1,-1,-1,-1,-1,-1,-1,-1,-1,-1,-1,-1,-1,-1,-1,-1,-1,-1,-1,-1,-1,-1,-1,-1,-1,-1,-1,-1,-1,-1,-1,-1,-1,-1],"loss_changes":[5.218131E4,2.1579055E4,2.6136953E3,2.673821E4,7.2738574E2,1.2617035E2,1.8222656E2,9.1003076E2,2.115711E3,9.6424286E1,8.6180176E1,6.664696E-1,8.312799E1,6.32961E1,4.336914E1,9.19082E1,1.552948E2,2.0575469E3,3.083573E2,1.1415207E1,5.1329205E1,3.364331E1,7.8027344E0,0E0,5.3877795E-1,9.365723E0,1.3719428E1,7.144165E-2,1.3459619E2,2.0962158E1,3.0078125E-1,6.602539E0,2.1482788E1,1.691771E1,5.8726017E1,2.9346582E2,5.2566406E2,7.663764E1,1.4294336E2,1.9478569E0,5.836746E0,1.1164898E1,8.826254E0,1.7731323E0,1.366861E1,4.824646E0,6.4453125E-2,0E0,5.166173E-2,0E0,4.0428467E0,4.4602847E-1,5.4989815E-1,0E0,0E0,1.7626942E1,5.6676483E-1,6.980591E-1,6.0748444E1,0E0,3.984375E-1,0E0,0E0,0E0,0E0,0E0,0E0,0E0,0E0,0E0,0E0,0E0,0E0,0E0,0E0,0E0,0E0,0E0,0E0,0E0,0E0,0E0,0E0,0E0,0E0,0E0,0E0,0E0,0E0,0E0,0E0,0E0,0E0,0E0,0E0,0E0,0E0,0E0,0E0,0E0,0E0,0E0,0E0,0E0,0E0,0E0,0E0,0E0,0E0,0E0,0E0],"parents":[2147483647,0,0,1,1,2,2,3,3,4,4,5,5,6,6,7,7,8,8,9,9,10,10,11,11,12,12,13,13,14,14,15,15,16,16,17,17,18,18,19,19,20,20,21,21,22,22,24,24,25,25,26,26,27,27,28,28,29,29,30,30,31,31,32,32,33,33,34,34,35,35,36,36,37,37,38,38,39,39,40,40,41,41,42,42,43,43,44,44,45,45,46,46,48,48,50,50,51,51,52,52,55,55,56,56,57,57,58,58,60,60],"right_children":[2,4,6,8,10,12,14,16,18,20,22,24,26,28,30,32,34,36,38,40,42,44,46,-1,48,50,52,54,56,58,60,62,64,66,68,70,72,74,76,78,80,82,84,86,88,90,92,-1,94,-1,96,98,100,-1,-1,102,104,106,108,-1,110,-1,-1,-1,-1,-1,-1,-1,-1,-1,-1,-1,-1,-1,-1,-1,-1,-1,-1,-1,-1,-1,-1,-1,-1,-1,-1,-1,-1,-1,-1,-1,-1,-1,-1,-1,-1,-1,-1,-1,-1,-1,-1,-1,-1,-1,-1,-1,-1,-1,-1],"split_conditions":[-1.034048E0,3.79476E-1,-9.83324E-1,-3.45596E-1,5.96322E-1,-4.62526E-1,-1.024055E0,-6.0358E-1,1.55941E-1,9.59553E-1,9.32688E-1,-5.66538E-1,2.85315E-1,-2.96838E-1,-9.6546E-1,-8.6555E-1,9.58561E-1,-1.73061E-1,9.48879E-1,4.63267E-1,4.94042E-1,9.55801E-1,1.274995E0,-1.6915885E-1,-5.30543E-1,-3.20061E-1,7.92385E-1,-6.0358E-1,3.30052E-1,-2.96838E-1,-4.00981E-1,-1.138634E0,-1.336637E0,9.44639E-1,-4.00981E-1,9.52173E-1,-5.5059E-2,2.28423E-1,2.65427E-1,9.42746E-1,9.45524E-1,9.96752E-1,9.78932E-1,-1.228071E0,7.48658E-1,-1.405381E0,1.576339E0,3.9063096E-2,-4.95086E-1,9.0516016E-2,9.2094E-2,5.27044E-1,8.84097E-1,-1.7111444E-1,-1.4416784E-1,-7.2348E-2,5.60358E-1,-4.62526E-1,2.4594E-1,-1.737755E-1,